booster[0]:
0:[f0<-0.931168556] yes=1,no=2,missing=2
	1:[f18<-1.14486337] yes=3,no=4,missing=4
		3:[f15<2.01548433] yes=7,no=8,missing=8
			7:[f18<-1.26607418] yes=15,no=16,missing=16
				15:[f11<2.50775075] yes=31,no=32,missing=32
					31:leaf=0.148243472
					32:leaf=0.0692298263
				16:[f7<0.187023804] yes=33,no=34,missing=34
					33:leaf=0.135761738
					34:leaf=0.0221173074
			8:[f1<-1.38208437] yes=17,no=18,missing=18
				17:[f4<-1.50863636] yes=35,no=36,missing=36
					35:leaf=-0.019811457
					36:leaf=0.142456129
				18:[f9<1.12237334] yes=37,no=38,missing=38
					37:leaf=-0.0273400098
					38:leaf=0.065093562
		4:[f7<0.187023804] yes=9,no=10,missing=10
			9:[f11<0.0178604145] yes=19,no=20,missing=20
				19:[f0<-1.12067139] yes=39,no=40,missing=40
					39:leaf=0.132385045
					40:leaf=0.0773659721
				20:[f2<1.32138205] yes=41,no=42,missing=42
					41:leaf=0.00565988431
					42:leaf=0.107956849
			10:[f2<1.15936542] yes=21,no=22,missing=22
				21:[f7<2.03707242] yes=43,no=44,missing=44
					43:leaf=-0.0261959024
					44:leaf=0.01865419
				22:[f7<2.32414889] yes=45,no=46,missing=46
					45:leaf=0.0183788482
					46:leaf=0.130432948
	2:[f0<-0.500876248] yes=5,no=6,missing=6
		5:[f7<0.187023804] yes=11,no=12,missing=12
			11:[f2<0.0349250622] yes=23,no=24,missing=24
				23:[f4<-0.555857003] yes=47,no=48,missing=48
					47:leaf=-0.0214345343
					48:leaf=0.0470857099
				24:[f9<0.0425824225] yes=49,no=50,missing=50
					49:leaf=0.0626790226
					50:leaf=-0.00256450451
			12:[f7<2.95146418] yes=25,no=26,missing=26
				25:[f2<0.9208619] yes=51,no=52,missing=52
					51:leaf=-0.0252200719
					52:leaf=0.00241111848
				26:[f4<-0.730713725] yes=53,no=54,missing=54
					53:leaf=-0.0102742091
					54:leaf=0.0975322053
		6:[f2<1.24733889] yes=13,no=14,missing=14
			13:[f0<-0.315604568] yes=27,no=28,missing=28
				27:[f9<-0.0249129757] yes=55,no=56,missing=56
					55:leaf=-0.0142566012
					56:leaf=-0.0270688366
				28:[f0<-0.181312099] yes=57,no=58,missing=58
					57:leaf=-0.0263069179
					58:leaf=-0.029934112
			14:[f0<-0.112995058] yes=29,no=30,missing=30
				29:[f10<-0.0356795788] yes=59,no=60,missing=60
					59:leaf=-0.0040701488
					60:leaf=0.0646485239
				30:[f18<-0.397349685] yes=61,no=62,missing=62
					61:leaf=0.0374994613
					62:leaf=-0.0261940788
booster[1]:
0:[f18<-0.145139381] yes=1,no=2,missing=2
	1:[f3<1.00378358] yes=3,no=4,missing=4
		3:[f5<3.2069788] yes=7,no=8,missing=8
			7:[f18<-0.374232292] yes=15,no=16,missing=16
				15:[f9<2.27545643] yes=31,no=32,missing=32
					31:leaf=-0.0293702614
					32:leaf=-0.0208144113
				16:[f4<-1.0319376] yes=33,no=34,missing=34
					33:leaf=0.0761356577
					34:leaf=-0.0224272944
			8:[f5<3.50126791] yes=17,no=18,missing=18
				17:[f8<-1.04294658] yes=35,no=36,missing=36
					35:leaf=0.00483831577
					36:leaf=0.13924104
				18:leaf=-0.0291536991
		4:[f12<-0.767087817] yes=9,no=10,missing=10
			9:[f0<-0.693689942] yes=19,no=20,missing=20
				19:leaf=-0.0294535346
				20:[f4<-1.26470852] yes=37,no=38,missing=38
					37:leaf=0.107141666
					38:leaf=-0.0220589545
			10:[f6<-0.597281396] yes=21,no=22,missing=22
				21:[f6<-1.34489536] yes=39,no=40,missing=40
					39:leaf=0.0145156458
					40:leaf=0.124151327
				22:[f11<0.919456542] yes=41,no=42,missing=42
					41:leaf=-0.0179106593
					42:leaf=0.0524088256
	2:[f4<-0.00189908082] yes=5,no=6,missing=6
		5:[f5<1.08809602] yes=11,no=12,missing=12
			11:[f0<-0.209420174] yes=23,no=24,missing=24
				23:[f6<-0.439255804] yes=43,no=44,missing=44
					43:leaf=0.0766803026
					44:leaf=0.00336754671
				24:[f5<-0.15969038] yes=45,no=46,missing=46
					45:leaf=0.0366472825
					46:leaf=0.0918819755
			12:[f1<1.85717535] yes=25,no=26,missing=26
				25:[f14<-0.37683621] yes=47,no=48,missing=48
					47:leaf=0.0453482829
					48:leaf=0.140778109
				26:leaf=0.0374994613
		6:[f3<-0.541255713] yes=13,no=14,missing=14
			13:[f0<0.939249754] yes=27,no=28,missing=28
				27:[f5<0.876207829] yes=49,no=50,missing=50
					49:leaf=0.0183309224
					50:leaf=0.0978439525
				28:[f18<1.0122112] yes=51,no=52,missing=52
					51:leaf=0.0483254083
					52:leaf=0.132734954
			14:[f1<1.41597235] yes=29,no=30,missing=30
				29:[f18<2.69879532] yes=53,no=54,missing=54
					53:leaf=-0.0277658608
					54:leaf=0.0144781861
				30:[f3<1.00378358] yes=55,no=56,missing=56
					55:leaf=-0.0273921341
					56:leaf=0.119618475
booster[2]:
0:[f6<1.38710451] yes=1,no=2,missing=2
	1:[f3<-0.442888439] yes=3,no=4,missing=4
		3:[f8<0.028485626] yes=7,no=8,missing=8
			7:[f3<-0.532918632] yes=15,no=16,missing=16
				15:[f8<-0.0880632997] yes=27,no=28,missing=28
					27:leaf=-0.0297274385
					28:leaf=-0.0263386648
				16:[f10<-0.185115457] yes=29,no=30,missing=30
					29:leaf=-0.0273722056
					30:leaf=0.0240528155
			8:[f1<0.299766421] yes=17,no=18,missing=18
				17:[f3<-0.692101657] yes=31,no=32,missing=32
					31:leaf=-0.0242870543
					32:leaf=0.023198992
				18:[f1<0.531299949] yes=33,no=34,missing=34
					33:leaf=-0.0221178737
					34:leaf=-0.0298364013
		4:[f3<0.648641586] yes=9,no=10,missing=10
			9:[f0<-0.266708404] yes=19,no=20,missing=20
				19:[f8<-0.458157271] yes=35,no=36,missing=36
					35:leaf=-0.0139599238
					36:leaf=0.132425353
				20:[f9<1.17743707] yes=37,no=38,missing=38
					37:leaf=-0.0130405715
					38:leaf=0.136826247
			10:[f9<1.12237334] yes=21,no=22,missing=22
				21:[f6<0.548363149] yes=39,no=40,missing=40
					39:leaf=-0.0264524668
					40:leaf=-0.00397669291
				22:[f0<-0.266708404] yes=41,no=42,missing=42
					41:leaf=-0.0108450605
					42:leaf=0.146275878
	2:[f5<2.14753747] yes=5,no=6,missing=6
		5:[f3<3.21149731] yes=11,no=12,missing=12
			11:[f0<0.501858294] yes=23,no=24,missing=24
				23:[f4<0.931160033] yes=43,no=44,missing=44
					43:leaf=0.0337841772
					44:leaf=0.144468054
				24:[f5<1.518911] yes=45,no=46,missing=46
					45:leaf=-0.0266233142
					46:leaf=0.113014355
			12:leaf=-0.0292828213
		6:[f9<2.27545643] yes=13,no=14,missing=14
			13:[f2<-0.116249695] yes=25,no=26,missing=26
				25:[f2<-0.154321179] yes=47,no=48,missing=48
					47:leaf=-0.021428505
					48:leaf=0.00789487548
				26:leaf=-0.0287799295
			14:leaf=-0.00283005624
booster[3]:
0:[f0<0.211510882] yes=1,no=2,missing=2
	1:[f0<0.143193841] yes=3,no=4,missing=4
		3:[f0<0.109035328] yes=7,no=8,missing=8
			7:[f0<0.0577975437] yes=15,no=16,missing=16
				15:leaf=-0.0299070012
				16:[f12<-0.554575026] yes=29,no=30,missing=30
					29:leaf=0.035526704
					30:leaf=-0.0289513171
			8:[f12<-0.625288427] yes=17,no=18,missing=18
				17:[f2<-1.245085] yes=31,no=32,missing=32
					31:leaf=-0.0238635745
					32:leaf=0.127914965
				18:[f6<-0.634645522] yes=33,no=34,missing=34
					33:leaf=0.0176472943
					34:leaf=-0.0289425608
		4:[f14<-0.330111742] yes=9,no=10,missing=10
			9:[f4<0.568222046] yes=19,no=20,missing=20
				19:[f3<-0.532918632] yes=35,no=36,missing=36
					35:leaf=0.145517856
					36:leaf=-0.0254236702
				20:[f6<-0.623968601] yes=37,no=38,missing=38
					37:leaf=-0.0260869004
					38:leaf=0.00789487548
			10:[f9<1.93729627] yes=21,no=22,missing=22
				21:[f6<-0.494478732] yes=39,no=40,missing=40
					39:leaf=0.00789487548
					40:leaf=-0.0291178375
				22:leaf=0.0552634411
	2:[f2<-1.41999185] yes=5,no=6,missing=6
		5:[f4<0.633782744] yes=11,no=12,missing=12
			11:leaf=0.0990571305
			12:[f4<0.729181111] yes=23,no=24,missing=24
				23:[f9<-0.647330761] yes=41,no=42,missing=42
					41:leaf=0.0481135361
					42:leaf=-0.0264705326
				24:[f6<0.712134361] yes=43,no=44,missing=44
					43:leaf=-0.0298804343
					44:leaf=0.00789487548
		6:[f16<0.635893941] yes=13,no=14,missing=14
			13:[f3<-0.14452152] yes=25,no=26,missing=26
				25:[f4<0.128876135] yes=45,no=46,missing=46
					45:leaf=0.0674026534
					46:leaf=0.147078991
				26:[f10<1.2708447] yes=47,no=48,missing=48
					47:leaf=-0.0282792877
					48:leaf=0.0552634411
			14:[f6<0.695142865] yes=27,no=28,missing=28
				27:[f16<0.776508331] yes=49,no=50,missing=50
					49:leaf=-0.0106287207
					50:leaf=-0.0272396505
				28:[f16<0.911858439] yes=51,no=52,missing=52
					51:leaf=0.108365856
					52:leaf=-0.00729351817
booster[4]:
0:[f4<-0.0283480007] yes=1,no=2,missing=2
	1:[f7<0.273970157] yes=3,no=4,missing=4
		3:[f5<0.668187857] yes=7,no=8,missing=8
			7:[f3<0.638981938] yes=15,no=16,missing=16
				15:[f3<-0.65024358] yes=31,no=32,missing=32
					31:leaf=0.0150905997
					32:leaf=-0.0214855038
				16:[f8<-0.0124087343] yes=33,no=34,missing=34
					33:leaf=0.0962197781
					34:leaf=-0.00878246967
			8:[f3<1.42011344] yes=17,no=18,missing=18
				17:[f12<0.913822412] yes=35,no=36,missing=36
					35:leaf=0.0830083713
					36:leaf=-0.00225543953
				18:[f10<-0.971729279] yes=37,no=38,missing=38
					37:leaf=0.125785634
					38:leaf=-0.0236969888
		4:[f7<2.12213206] yes=9,no=10,missing=10
			9:[f6<0.271959722] yes=19,no=20,missing=20
				19:[f18<-1.38417268] yes=39,no=40,missing=40
					39:leaf=-0.0228372868
					40:leaf=0.100042678
				20:[f7<0.729279459] yes=41,no=42,missing=42
					41:leaf=0.0370237343
					42:leaf=-0.0235954262
			10:[f7<2.74944735] yes=21,no=22,missing=22
				21:[f5<1.518911] yes=43,no=44,missing=44
					43:leaf=-0.0142263351
					44:leaf=0.0709464997
				22:[f5<2.57131386] yes=45,no=46,missing=46
					45:leaf=0.135484844
					46:leaf=0.0230771936
	2:[f3<-0.692101657] yes=5,no=6,missing=6
		5:[f12<1.07486844] yes=11,no=12,missing=12
			11:[f11<0.576794505] yes=23,no=24,missing=24
				23:[f13<-1.13332009] yes=47,no=48,missing=48
					47:leaf=0.0161810517
					48:leaf=0.0910699517
				24:leaf=-0.0269662384
			12:[f12<1.1851418] yes=25,no=26,missing=26
				25:[f5<0.876207829] yes=49,no=50,missing=50
					49:leaf=0.034326423
					50:leaf=-0.0201679748
				26:[f7<0.463467836] yes=51,no=52,missing=52
					51:leaf=-0.0238366202
					52:leaf=0.00392693421
		6:[f5<2.40651202] yes=13,no=14,missing=14
			13:[f3<2.5184803] yes=27,no=28,missing=28
				27:[f13<7.55793715] yes=53,no=54,missing=54
					53:leaf=-0.0281647444
					54:leaf=0.103448845
				28:[f6<2.0022397] yes=55,no=56,missing=56
					55:leaf=-0.0127742216
					56:leaf=0.134303302
			14:[f6<1.59869611] yes=29,no=30,missing=30
				29:[f8<1.84010577] yes=57,no=58,missing=58
					57:leaf=-0.0264639836
					58:leaf=0.0261748433
				30:[f3<0.847036004] yes=59,no=60,missing=60
					59:leaf=0.127814457
					60:leaf=-0.0279069245
booster[5]:
0:[f2<-1.41999185] yes=1,no=2,missing=2
	1:leaf=0.149291649
	2:[f4<-0.333979964] yes=3,no=4,missing=4
		3:[f6<0.138523579] yes=5,no=6,missing=6
			5:[f8<0.241136298] yes=9,no=10,missing=10
				9:[f10<0.20979169] yes=17,no=18,missing=18
					17:leaf=-0.0298189577
					18:leaf=-0.0248283017
				10:[f1<-0.363923579] yes=19,no=20,missing=20
					19:leaf=0.014399535
					20:leaf=-0.0286016446
			6:[f1<-0.299817145] yes=11,no=12,missing=12
				11:[f7<-0.722655296] yes=21,no=22,missing=22
					21:leaf=0.0805540606
					22:leaf=-0.00345602818
				12:[f18<-0.42737475] yes=23,no=24,missing=24
					23:leaf=0.0260872748
					24:leaf=-0.0253142901
		4:[f1<0.128429726] yes=7,no=8,missing=8
			7:[f6<1.47146189] yes=13,no=14,missing=14
				13:[f13<0.00711150281] yes=25,no=26,missing=26
					25:leaf=0.0778383315
					26:leaf=0.00870192423
				14:[f5<2.52422762] yes=27,no=28,missing=28
					27:leaf=-0.0295608733
					28:leaf=0.0983987376
			8:[f1<0.398112744] yes=15,no=16,missing=16
				15:[f5<-0.889261603] yes=29,no=30,missing=30
					29:leaf=0.0481870174
					30:leaf=-0.0174367242
				16:[f2<-1.17949486] yes=31,no=32,missing=32
					31:leaf=0.0450534485
					32:leaf=-0.0280770492
booster[6]:
0:[f0<-0.931168556] yes=1,no=2,missing=2
	1:[f18<-1.14486337] yes=3,no=4,missing=4
		3:[f5<0.943199754] yes=7,no=8,missing=8
			7:[f3<1.00378358] yes=15,no=16,missing=16
				15:[f7<0.686749578] yes=31,no=32,missing=32
					31:leaf=0.129112378
					32:leaf=0.09753903
				16:[f3<3.21149731] yes=33,no=34,missing=34
					33:leaf=-0.0190450586
					34:leaf=0.108495586
			8:[f5<2.30465698] yes=17,no=18,missing=18
				17:[f10<-1.92185223] yes=35,no=36,missing=36
					35:leaf=0.0516210385
					36:leaf=-0.029049499
				18:leaf=0.119806387
		4:[f7<0.197656274] yes=9,no=10,missing=10
			9:[f5<0.475974411] yes=19,no=20,missing=20
				19:[f11<0.0644982457] yes=37,no=38,missing=38
					37:leaf=0.111027077
					38:leaf=0.035142038
				20:[f5<2.57131386] yes=39,no=40,missing=40
					39:leaf=-0.0288875047
					40:leaf=0.05276509
			10:[f7<2.32414889] yes=21,no=22,missing=22
				21:[f1<-1.05778134] yes=41,no=42,missing=42
					41:leaf=-0.0252482295
					42:leaf=-0.00121549668
				22:[f7<2.6629734] yes=43,no=44,missing=44
					43:leaf=0.110505544
					44:leaf=-0.0251532998
	2:[f0<-0.500876248] yes=5,no=6,missing=6
		5:[f3<-0.502028346] yes=11,no=12,missing=12
			11:[f3<-0.65024358] yes=23,no=24,missing=24
				23:[f5<-0.857241035] yes=45,no=46,missing=46
					45:leaf=0.0355410166
					46:leaf=-0.0135301519
				24:[f5<0.487746] yes=47,no=48,missing=48
					47:leaf=0.115997113
					48:leaf=0.00425014412
			12:[f3<3.66955256] yes=25,no=26,missing=26
				25:[f8<-1.47029269] yes=49,no=50,missing=50
					49:leaf=0.0793828517
					50:leaf=-0.02586486
				26:[f3<4.0352726] yes=51,no=52,missing=52
					51:leaf=0.133245289
					52:leaf=-0.0249422546
		6:[f0<-0.24962914] yes=13,no=14,missing=14
			13:[f3<-0.514915287] yes=27,no=28,missing=28
				27:[f3<-0.551468313] yes=53,no=54,missing=54
					53:leaf=-0.0245319288
					54:leaf=0.0778033361
				28:[f3<3.66955256] yes=55,no=56,missing=56
					55:leaf=-0.0258473456
					56:leaf=0.0888442025
			14:[f3<2.509377] yes=29,no=30,missing=30
				29:[f0<-0.112995058] yes=57,no=58,missing=58
					57:leaf=-0.0256278571
					58:leaf=-0.0296807289
				30:leaf=0.0464444794
booster[7]:
0:[f18<-0.211194456] yes=1,no=2,missing=2
	1:[f3<1.42011344] yes=3,no=4,missing=4
		3:[f5<3.2069788] yes=7,no=8,missing=8
			7:[f7<2.6629734] yes=15,no=16,missing=16
				15:[f18<-0.357316315] yes=31,no=32,missing=32
					31:leaf=-0.0288116187
					32:leaf=-0.0207857024
				16:[f7<2.74944735] yes=33,no=34,missing=34
					33:leaf=0.120180003
					34:leaf=-0.0273504406
			8:[f5<3.50126791] yes=17,no=18,missing=18
				17:[f8<-1.04294658] yes=35,no=36,missing=36
					35:leaf=0.00479881419
					36:leaf=0.121888041
				18:leaf=-0.0290235281
		4:[f12<-0.757794678] yes=9,no=10,missing=10
			9:[f0<-0.693689942] yes=19,no=20,missing=20
				19:leaf=-0.029140735
				20:[f4<-1.26470852] yes=37,no=38,missing=38
					37:leaf=0.100225978
					38:leaf=-0.0173912682
			10:[f8<-0.336371899] yes=21,no=22,missing=22
				21:[f18<-0.801686883] yes=39,no=40,missing=40
					39:leaf=-0.0173500739
					40:leaf=0.116339386
				22:leaf=-0.0206427649
	2:[f4<-0.00189908082] yes=5,no=6,missing=6
		5:[f5<1.08809602] yes=11,no=12,missing=12
			11:[f0<-0.209420174] yes=23,no=24,missing=24
				23:[f6<-0.439255804] yes=41,no=42,missing=42
					41:leaf=0.0683050379
					42:leaf=0.000402887643
				24:[f5<-0.15969038] yes=43,no=44,missing=44
					43:leaf=0.0325754657
					44:leaf=0.081949994
			12:[f5<3.50126791] yes=25,no=26,missing=26
				25:[f1<1.63854945] yes=45,no=46,missing=46
					45:leaf=0.123773791
					46:leaf=0.0387152545
				26:leaf=-0.017702369
		6:[f3<-0.541255713] yes=13,no=14,missing=14
			13:[f0<0.939249754] yes=27,no=28,missing=28
				27:[f5<0.876207829] yes=47,no=48,missing=48
					47:leaf=0.018072335
					48:leaf=0.0894594193
				28:[f18<1.0122112] yes=49,no=50,missing=50
					49:leaf=0.0487583689
					50:leaf=0.117503755
			14:[f1<1.41597235] yes=29,no=30,missing=30
				29:[f18<2.69879532] yes=51,no=52,missing=52
					51:leaf=-0.0278783478
					52:leaf=0.0147923445
				30:[f3<1.00378358] yes=53,no=54,missing=54
					53:leaf=-0.0271174945
					54:leaf=0.10533499
booster[8]:
0:[f6<1.38710451] yes=1,no=2,missing=2
	1:[f3<-0.442888439] yes=3,no=4,missing=4
		3:[f8<0.00599372806] yes=7,no=8,missing=8
			7:[f3<-0.532918632] yes=15,no=16,missing=16
				15:[f8<-0.147360131] yes=27,no=28,missing=28
					27:leaf=-0.0295465048
					28:leaf=-0.0270973593
				16:[f8<-0.236604884] yes=29,no=30,missing=30
					29:leaf=-0.027608458
					30:leaf=0.012987827
			8:[f1<0.0131730149] yes=17,no=18,missing=18
				17:[f3<-0.692101657] yes=31,no=32,missing=32
					31:leaf=-0.0230227672
					32:leaf=0.0278576557
				18:[f1<0.363872856] yes=33,no=34,missing=34
					33:leaf=-0.0137280328
					34:leaf=-0.0293170102
		4:[f3<0.648641586] yes=9,no=10,missing=10
			9:[f0<-0.266708404] yes=19,no=20,missing=20
				19:[f8<-0.538072705] yes=35,no=36,missing=36
					35:leaf=-0.0197221432
					36:leaf=0.114561431
				20:[f9<1.17743707] yes=37,no=38,missing=38
					37:leaf=-0.0132738072
					38:leaf=0.122671701
			10:[f9<1.12237334] yes=21,no=22,missing=22
				21:[f6<0.548363149] yes=39,no=40,missing=40
					39:leaf=-0.026387224
					40:leaf=-0.00433245068
				22:[f0<-0.266708404] yes=41,no=42,missing=42
					41:leaf=-0.0125401691
					42:leaf=0.128345177
	2:[f5<2.14753747] yes=5,no=6,missing=6
		5:[f3<3.21149731] yes=11,no=12,missing=12
			11:[f0<0.514303684] yes=23,no=24,missing=24
				23:[f4<0.875323415] yes=43,no=44,missing=44
					43:leaf=-0.00413308153
					44:leaf=0.124964617
				24:[f5<1.518911] yes=45,no=46,missing=46
					45:leaf=-0.0263716709
					46:leaf=0.0980753526
			12:leaf=-0.0291483533
		6:[f11<-0.272788256] yes=13,no=14,missing=14
			13:[f3<1.00378358] yes=25,no=26,missing=26
				25:leaf=-0.0250010826
				26:[f18<1.61231422] yes=47,no=48,missing=48
					47:leaf=-0.0156531092
					48:leaf=0.0318718217
			14:leaf=-0.0295557231
booster[9]:
0:[f0<0.211510882] yes=1,no=2,missing=2
	1:[f0<0.143193841] yes=3,no=4,missing=4
		3:[f0<0.0748768076] yes=7,no=8,missing=8
			7:[f2<-0.973154902] yes=15,no=16,missing=16
				15:[f9<0.380756646] yes=29,no=30,missing=30
					29:leaf=-0.0277061071
					30:leaf=0.0234687235
				16:[f1<1.23641706] yes=31,no=32,missing=32
					31:leaf=-0.029718278
					32:leaf=-0.00990521535
			8:[f12<-0.570247352] yes=17,no=18,missing=18
				17:[f2<-1.245085] yes=33,no=34,missing=34
					33:leaf=-0.0271382779
					34:leaf=0.100927629
				18:[f9<2.11492562] yes=35,no=36,missing=36
					35:leaf=-0.0289476104
					36:leaf=0.00844537932
		4:[f12<-0.382700086] yes=9,no=10,missing=10
			9:[f4<0.568222046] yes=19,no=20,missing=20
				19:[f3<-0.532918632] yes=37,no=38,missing=38
					37:leaf=0.128597751
					38:leaf=-0.0243805088
				20:[f16<-0.829511762] yes=39,no=40,missing=40
					39:leaf=-0.0266160164
					40:leaf=0.0316438302
			10:[f13<1.77782965] yes=21,no=22,missing=22
				21:[f14<-0.474348128] yes=41,no=42,missing=42
					41:leaf=0.029681474
					42:leaf=-0.0286853518
				22:leaf=0.0814232454
	2:[f2<-1.41999185] yes=5,no=6,missing=6
		5:[f4<0.633782744] yes=11,no=12,missing=12
			11:leaf=0.0889704451
			12:[f4<0.729181111] yes=23,no=24,missing=24
				23:[f9<-0.647330761] yes=43,no=44,missing=44
					43:leaf=0.0399806648
					44:leaf=-0.025853334
				24:[f6<0.64939332] yes=45,no=46,missing=46
					45:leaf=-0.0296861511
					46:leaf=0.00807336438
		6:[f16<0.635893941] yes=13,no=14,missing=14
			13:[f3<-0.14452152] yes=25,no=26,missing=26
				25:[f4<0.115651675] yes=47,no=48,missing=48
					47:leaf=0.0587169826
					48:leaf=0.127159119
				26:[f8<1.02017391] yes=49,no=50,missing=50
					49:leaf=-0.0295954999
					50:leaf=0.0281371977
			14:[f6<0.677986801] yes=27,no=28,missing=28
				27:[f16<0.776508331] yes=51,no=52,missing=52
					51:leaf=-0.0126527864
					52:leaf=-0.0273818467
				28:[f16<0.911858439] yes=53,no=54,missing=54
					53:leaf=0.0957608148
					54:leaf=-0.00769295311
booster[10]:
0:[f4<-0.0401030742] yes=1,no=2,missing=2
	1:[f7<0.273970157] yes=3,no=4,missing=4
		3:[f5<0.581918538] yes=7,no=8,missing=8
			7:[f3<0.638981938] yes=15,no=16,missing=16
				15:[f3<-0.65024358] yes=31,no=32,missing=32
					31:leaf=0.0151051683
					32:leaf=-0.0215468109
				16:[f8<0.0591563955] yes=33,no=34,missing=34
					33:leaf=0.0855263695
					34:leaf=-0.0106505519
			8:[f3<1.42011344] yes=17,no=18,missing=18
				17:[f5<2.64194345] yes=35,no=36,missing=36
					35:leaf=0.0779347345
					36:leaf=0.0212587267
				18:[f10<-0.971729279] yes=37,no=38,missing=38
					37:leaf=0.111217797
					38:leaf=-0.0229764357
		4:[f7<2.14339709] yes=9,no=10,missing=10
			9:[f8<0.486502469] yes=19,no=20,missing=20
				19:[f18<-1.46023607] yes=39,no=40,missing=40
					39:leaf=-0.0271496326
					40:leaf=0.0887211487
				20:[f3<0.315599054] yes=41,no=42,missing=42
					41:leaf=0.0372379459
					42:leaf=-0.021590624
			10:[f7<2.74944735] yes=21,no=22,missing=22
				21:[f5<1.518911] yes=43,no=44,missing=44
					43:leaf=-0.0140786162
					44:leaf=0.0738462955
				22:[f18<-0.00500406511] yes=45,no=46,missing=46
					45:leaf=0.119382374
					46:leaf=-0.0198540967
	2:[f3<-0.683495402] yes=5,no=6,missing=6
		5:[f12<1.01371169] yes=11,no=12,missing=12
			11:[f17<-0.478610665] yes=23,no=24,missing=24
				23:[f15<-0.852816641] yes=47,no=48,missing=48
					47:leaf=0.00989276078
					48:leaf=0.0717015788
				24:[f10<1.18471336] yes=49,no=50,missing=50
					49:leaf=0.104985796
					50:leaf=-0.0143793896
			12:[f12<1.15187967] yes=25,no=26,missing=26
				25:[f5<0.868449926] yes=51,no=52,missing=52
					51:leaf=0.047303386
					52:leaf=-0.0255074948
				26:[f7<0.452835381] yes=53,no=54,missing=54
					53:leaf=-0.0213695019
					54:leaf=0.00624032179
		6:[f0<-0.164232835] yes=13,no=14,missing=14
			13:[f3<0.847036004] yes=27,no=28,missing=28
				27:[f5<2.14753747] yes=55,no=56,missing=56
					55:leaf=-0.01770976
					56:leaf=0.129123673
				28:[f3<2.5184803] yes=57,no=58,missing=58
					57:leaf=-0.0290623549
					58:leaf=-0.000120435936
			14:[f3<1.12303114] yes=29,no=30,missing=30
				29:[f2<0.761809111] yes=59,no=60,missing=60
					59:leaf=-0.0293303914
					60:leaf=-0.0153061748
				30:[f3<1.42011344] yes=61,no=62,missing=62
					61:leaf=0.0569672957
					62:leaf=-0.0257082637
booster[11]:
0:[f2<-1.41999185] yes=1,no=2,missing=2
	1:leaf=0.128937021
	2:[f4<-0.350143194] yes=3,no=4,missing=4
		3:[f6<0.138523579] yes=5,no=6,missing=6
			5:[f8<0.241136298] yes=9,no=10,missing=10
				9:[f10<0.20979169] yes=17,no=18,missing=18
					17:leaf=-0.02963279
					18:leaf=-0.0245979577
				10:[f1<-0.437246144] yes=19,no=20,missing=20
					19:leaf=0.015946852
					20:leaf=-0.0277818441
			6:[f1<-0.299817145] yes=11,no=12,missing=12
				11:[f8<0.545799315] yes=21,no=22,missing=22
					21:leaf=0.0206963718
					22:leaf=0.115231551
				12:[f8<0.728222013] yes=23,no=24,missing=24
					23:leaf=-0.0266412031
					24:leaf=0.00980577059
		4:[f1<0.112439223] yes=7,no=8,missing=8
			7:[f6<1.47146189] yes=13,no=14,missing=14
				13:[f13<0.00711150281] yes=25,no=26,missing=26
					25:leaf=0.0688759238
					26:leaf=0.00867595058
				14:[f5<2.52422762] yes=27,no=28,missing=28
					27:leaf=-0.0294764768
					28:leaf=0.091320686
			8:[f1<0.398112744] yes=15,no=16,missing=16
				15:[f5<-0.889261603] yes=29,no=30,missing=30
					29:leaf=0.0479208641
					30:leaf=-0.0165038146
				16:[f2<-1.245085] yes=31,no=32,missing=32
					31:leaf=0.0684205443
					32:leaf=-0.0276827943
booster[12]:
0:[f0<-0.931168556] yes=1,no=2,missing=2
	1:[f18<-1.11935842] yes=3,no=4,missing=4
		3:[f5<0.943199754] yes=7,no=8,missing=8
			7:[f3<1.00378358] yes=15,no=16,missing=16
				15:[f7<0.686749578] yes=31,no=32,missing=32
					31:leaf=0.114164509
					32:leaf=0.086534448
				16:[f0<-1.09603429] yes=33,no=34,missing=34
					33:leaf=-0.0260380656
					34:leaf=0.0962751284
			8:[f5<2.30465698] yes=17,no=18,missing=18
				17:[f8<-1.96934056] yes=35,no=36,missing=36
					35:leaf=0.0702694654
					36:leaf=-0.0290427543
				18:leaf=0.109032981
		4:[f5<0.181685165] yes=9,no=10,missing=10
			9:[f9<0.380756646] yes=19,no=20,missing=20
				19:[f7<0.187023804] yes=37,no=38,missing=38
					37:leaf=0.102200173
					38:leaf=0.0232746955
				20:[f9<1.70602727] yes=39,no=40,missing=40
					39:leaf=-0.0186754148
					40:leaf=0.0552025996
			10:[f2<1.12303019] yes=21,no=22,missing=22
				21:[f16<-0.956781268] yes=41,no=42,missing=42
					41:leaf=0.0149219381
					42:leaf=-0.0210352149
				22:[f4<-1.32562006] yes=43,no=44,missing=44
					43:leaf=0.0969106331
					44:leaf=-0.0245393533
	2:[f0<-0.500876248] yes=5,no=6,missing=6
		5:[f3<-0.514915287] yes=11,no=12,missing=12
			11:[f3<-0.617556274] yes=23,no=24,missing=24
				23:[f5<-0.857241035] yes=45,no=46,missing=46
					45:leaf=0.0384072848
					46:leaf=-0.00930860266
				24:[f5<0.943199754] yes=47,no=48,missing=48
					47:leaf=0.105569795
					48:leaf=-0.0131114814
			12:[f2<1.21109998] yes=25,no=26,missing=26
				25:[f3<3.66955256] yes=49,no=50,missing=50
					49:leaf=-0.0270132273
					50:leaf=0.00638554757
				26:[f3<3.66955256] yes=51,no=52,missing=52
					51:leaf=0.00842091814
					52:leaf=0.110596232
		6:[f2<1.18174875] yes=13,no=14,missing=14
			13:[f0<-0.315604568] yes=27,no=28,missing=28
				27:[f3<-0.514915287] yes=53,no=54,missing=54
					53:leaf=-0.00346603291
					54:leaf=-0.0265365671
				28:[f3<2.509377] yes=55,no=56,missing=56
					55:leaf=-0.0293262359
					56:leaf=0.0309743937
			14:[f0<-0.0959158018] yes=29,no=30,missing=30
				29:[f10<-0.0128490962] yes=57,no=58,missing=58
					57:leaf=-0.00514608156
					58:leaf=0.0595136099
				30:[f18<-0.397349685] yes=59,no=60,missing=60
					59:leaf=0.0369518846
					60:leaf=-0.0267665591
booster[13]:
0:[f14<-0.303702265] yes=1,no=2,missing=2
	1:[f3<1.62932622] yes=3,no=4,missing=4
		3:[f5<3.2069788] yes=7,no=8,missing=8
			7:[f7<2.6629734] yes=15,no=16,missing=16
				15:[f14<-0.500757635] yes=31,no=32,missing=32
					31:leaf=-0.0289248955
					32:leaf=-0.0210904852
				16:[f7<2.74944735] yes=33,no=34,missing=34
					33:leaf=0.103515469
					34:leaf=-0.0272744801
			8:[f5<3.50126791] yes=17,no=18,missing=18
				17:[f8<-1.04294658] yes=35,no=36,missing=36
					35:leaf=-0.00498083699
					36:leaf=0.110988699
				18:leaf=-0.0289020818
		4:[f0<-0.749213874] yes=9,no=10,missing=10
			9:[f6<-1.12864661] yes=19,no=20,missing=20
				19:leaf=-0.0288679991
				20:leaf=0.00780306896
			10:[f15<0.957391441] yes=21,no=22,missing=22
				21:[f4<-0.849733889] yes=37,no=38,missing=38
					37:leaf=0.113389686
					38:leaf=0.0474098735
				22:[f3<2.47925282] yes=39,no=40,missing=40
					39:leaf=0.0674924701
					40:leaf=-0.0253109317
	2:[f4<-0.00189908082] yes=5,no=6,missing=6
		5:[f0<-0.209420174] yes=11,no=12,missing=12
			11:[f3<-0.683495402] yes=23,no=24,missing=24
				23:[f6<-0.412407607] yes=41,no=42,missing=42
					41:leaf=0.097015202
					42:leaf=0.028199831
				24:[f4<-0.927999854] yes=43,no=44,missing=44
					43:leaf=0.0742070898
					44:leaf=-0.0152749941
			12:[f5<-0.15969038] yes=25,no=26,missing=26
				25:[f10<0.420930058] yes=45,no=46,missing=46
					45:leaf=0.00715682749
					46:leaf=0.0445021428
				26:[f5<0.16991359] yes=47,no=48,missing=48
					47:leaf=0.118515335
					48:leaf=0.0574721806
		6:[f3<-0.541255713] yes=13,no=14,missing=14
			13:[f14<1.10615754] yes=27,no=28,missing=28
				27:[f7<0.240186125] yes=49,no=50,missing=50
					49:leaf=0.00367601449
					50:leaf=0.0596449263
				28:[f0<0.939249754] yes=51,no=52,missing=52
					51:leaf=0.070384331
					52:leaf=0.107667804
			14:[f1<1.41597235] yes=29,no=30,missing=30
				29:[f12<2.44278216] yes=53,no=54,missing=54
					53:leaf=-0.0281160362
					54:leaf=-0.00104059558
				30:[f3<1.00378358] yes=55,no=56,missing=56
					55:leaf=-0.0274199005
					56:leaf=0.0990362391
booster[14]:
0:[f6<1.38710451] yes=1,no=2,missing=2
	1:[f3<-0.442888439] yes=3,no=4,missing=4
		3:[f8<0.028485626] yes=7,no=8,missing=8
			7:[f3<-0.532918632] yes=15,no=16,missing=16
				15:[f8<-0.194388643] yes=27,no=28,missing=28
					27:leaf=-0.0294121038
					28:leaf=-0.027314106
				16:[f10<-0.160209477] yes=29,no=30,missing=30
					29:leaf=-0.026232332
					30:leaf=0.0357486457
			8:[f1<0.231889039] yes=17,no=18,missing=18
				17:[f3<-0.692101657] yes=31,no=32,missing=32
					31:leaf=-0.0225792266
					32:leaf=0.0239559039
				18:[f1<0.398112744] yes=33,no=34,missing=34
					33:leaf=-0.0171438977
					34:leaf=-0.0292575452
		4:[f3<0.638981938] yes=9,no=10,missing=10
			9:[f0<-0.283787668] yes=19,no=20,missing=20
				19:[f8<-0.538072705] yes=35,no=36,missing=36
					35:leaf=-0.0194740854
					36:leaf=0.105064951
				20:[f9<0.876747131] yes=37,no=38,missing=38
					37:leaf=-0.0120056411
					38:leaf=0.109824553
			10:[f9<1.12237334] yes=21,no=22,missing=22
				21:[f4<1.11189425] yes=39,no=40,missing=40
					39:leaf=-0.0230912995
					40:leaf=0.0820300207
				22:[f0<-0.266708404] yes=41,no=42,missing=42
					41:leaf=-0.0116194468
					42:leaf=0.11522036
	2:[f5<2.14753747] yes=5,no=6,missing=6
		5:[f3<3.21149731] yes=11,no=12,missing=12
			11:[f0<0.514303684] yes=23,no=24,missing=24
				23:[f4<1.01468813] yes=43,no=44,missing=44
					43:leaf=0.0534052141
					44:leaf=0.111546896
				24:[f5<1.518911] yes=45,no=46,missing=46
					45:leaf=-0.0261931121
					46:leaf=0.0906426609
			12:leaf=-0.029087035
		6:[f9<2.27545643] yes=13,no=14,missing=14
			13:[f11<-0.272788256] yes=25,no=26,missing=26
				25:[f3<1.00378358] yes=47,no=48,missing=48
					47:leaf=-0.0252395254
					48:leaf=0.0184561182
				26:leaf=-0.0288884081
			14:leaf=-0.00245614978
booster[15]:
0:[f0<0.211510882] yes=1,no=2,missing=2
	1:[f0<0.143193841] yes=3,no=4,missing=4
		3:[f0<0.0919560641] yes=7,no=8,missing=8
			7:[f0<0.0577975437] yes=15,no=16,missing=16
				15:leaf=-0.0295424759
				16:[f12<-0.554575026] yes=29,no=30,missing=30
					29:leaf=0.0322689377
					30:leaf=-0.0284094401
			8:[f12<-0.570247352] yes=17,no=18,missing=18
				17:[f2<-1.245085] yes=31,no=32,missing=32
					31:leaf=-0.0259458721
					32:leaf=0.0956143066
				18:[f13<1.44852245] yes=33,no=34,missing=34
					33:leaf=-0.0287485309
					34:leaf=0.022385858
		4:[f12<-0.346006066] yes=9,no=10,missing=10
			9:[f4<0.568222046] yes=19,no=20,missing=20
				19:[f3<-0.532918632] yes=35,no=36,missing=36
					35:leaf=0.114781871
					36:leaf=-0.0245526712
				20:[f16<-0.847693086] yes=37,no=38,missing=38
					37:leaf=-0.0263049435
					38:leaf=0.00816790666
			10:[f13<1.77782965] yes=21,no=22,missing=22
				21:[f6<-0.448595405] yes=39,no=40,missing=40
					39:leaf=0.0175838191
					40:leaf=-0.0285291951
				22:leaf=0.0693666041
	2:[f2<-1.41999185] yes=5,no=6,missing=6
		5:[f4<0.633782744] yes=11,no=12,missing=12
			11:leaf=0.093008779
			12:[f4<0.729181111] yes=23,no=24,missing=24
				23:[f18<-0.67358005] yes=41,no=42,missing=42
					41:leaf=-0.0259240214
					42:leaf=0.0553296171
				24:[f6<0.712134361] yes=43,no=44,missing=44
					43:leaf=-0.029495934
					44:leaf=0.00795627665
		6:[f18<0.671541691] yes=13,no=14,missing=14
			13:[f3<-0.14452152] yes=25,no=26,missing=26
				25:[f4<0.115651675] yes=45,no=46,missing=46
					45:leaf=0.056119632
					46:leaf=0.112761073
				26:[f10<1.31962085] yes=47,no=48,missing=48
					47:leaf=-0.0277325641
					48:leaf=0.0528947823
			14:[f6<0.695142865] yes=27,no=28,missing=28
				27:[f18<0.809656858] yes=49,no=50,missing=50
					49:leaf=-0.0136103872
					50:leaf=-0.0285405964
				28:[f18<0.889122009] yes=51,no=52,missing=52
					51:leaf=0.0921448991
					52:leaf=-0.00643511117
booster[16]:
0:[f4<-0.0283480007] yes=1,no=2,missing=2
	1:[f7<0.273970157] yes=3,no=4,missing=4
		3:[f5<0.758492112] yes=7,no=8,missing=8
			7:[f3<0.638981938] yes=15,no=16,missing=16
				15:[f3<-0.65024358] yes=31,no=32,missing=32
					31:leaf=0.014044011
					32:leaf=-0.0209115632
				16:[f8<-0.0349006318] yes=33,no=34,missing=34
					33:leaf=0.079960227
					34:leaf=-0.00589810824
			8:[f5<0.876207829] yes=17,no=18,missing=18
				17:[f3<1.42011344] yes=35,no=36,missing=36
					35:leaf=0.108556367
					36:leaf=0.00699357549
				18:[f10<-0.743424475] yes=37,no=38,missing=38
					37:leaf=0.0860745087
					38:leaf=0.0288179666
		4:[f7<2.14339709] yes=9,no=10,missing=10
			9:[f6<0.271959722] yes=19,no=20,missing=20
				19:[f18<-1.38417268] yes=39,no=40,missing=40
					39:leaf=-0.0242478698
					40:leaf=0.0819971636
				20:[f5<-0.948385596] yes=41,no=42,missing=42
					41:leaf=0.0728415847
					42:leaf=0.00110935012
			10:[f7<2.74944735] yes=21,no=22,missing=22
				21:[f5<1.518911] yes=43,no=44,missing=44
					43:leaf=-0.0135001838
					44:leaf=0.0722937956
				22:[f18<-0.00500406511] yes=45,no=46,missing=46
					45:leaf=0.106589556
					46:leaf=-0.0184330605
	2:[f3<-0.67201364] yes=5,no=6,missing=6
		5:[f12<1.15187967] yes=11,no=12,missing=12
			11:[f10<0.825652182] yes=23,no=24,missing=24
				23:[f6<-0.0235060137] yes=47,no=48,missing=48
					47:leaf=-0.00945553463
					48:leaf=0.0882082507
				24:[f5<-0.90253377] yes=49,no=50,missing=50
					49:leaf=0.0732105747
					50:leaf=0.0139955748
			12:[f6<0.605550051] yes=25,no=26,missing=26
				25:[f5<-0.787907481] yes=51,no=52,missing=52
					51:leaf=0.0688504502
					52:leaf=-0.0206304584
				26:[f7<0.452835381] yes=53,no=54,missing=54
					53:leaf=-0.0248581525
					54:leaf=-0.00410722615
		6:[f5<2.40651202] yes=13,no=14,missing=14
			13:[f3<2.5184803] yes=27,no=28,missing=28
				27:[f13<7.55793715] yes=55,no=56,missing=56
					55:leaf=-0.0280161258
					56:leaf=0.0899730027
				28:[f8<1.87379622] yes=57,no=58,missing=58
					57:leaf=-0.0128774047
					58:leaf=0.118902802
			14:[f6<1.70163262] yes=29,no=30,missing=30
				29:[f8<1.84010577] yes=59,no=60,missing=60
					59:leaf=-0.0248854421
					60:leaf=0.0380629264
				30:[f5<2.52422762] yes=61,no=62,missing=62
					61:leaf=0.113069512
					62:leaf=0.0167699791
booster[17]:
0:[f2<-1.41999185] yes=1,no=2,missing=2
	1:[f6<0.712134361] yes=3,no=4,missing=4
		3:leaf=0.113865308
		4:leaf=0.0335485674
	2:[f3<0.648641586] yes=5,no=6,missing=6
		5:[f2<-1.245085] yes=7,no=8,missing=8
			7:[f16<-0.764866889] yes=11,no=12,missing=12
				11:[f12<-0.863799632] yes=19,no=20,missing=20
					19:leaf=0.117719524
					20:leaf=0.0304175597
				12:[f4<0.892956018] yes=21,no=22,missing=22
					21:leaf=-0.022595359
					22:leaf=0.0909869075
			8:[f6<0.108646937] yes=13,no=14,missing=14
				13:[f4<0.892956018] yes=23,no=24,missing=24
					23:leaf=-0.0294517614
					24:leaf=0.110498361
				14:[f0<-0.360296249] yes=25,no=26,missing=26
					25:leaf=0.00456424616
					26:leaf=-0.0283518713
		6:[f2<-0.303140372] yes=9,no=10,missing=10
			9:[f4<0.912057996] yes=15,no=16,missing=16
				15:[f9<0.0875821337] yes=27,no=28,missing=28
					27:leaf=0.119264364
					28:leaf=-0.0241969172
				16:[f8<0.972536147] yes=29,no=30,missing=30
					29:leaf=0.00865839981
					30:leaf=-0.0294270199
			10:[f3<3.25072479] yes=17,no=18,missing=18
				17:[f16<0.635893941] yes=31,no=32,missing=32
					31:leaf=0.0127226906
					32:leaf=-0.0272422787
				18:[f3<3.66955256] yes=33,no=34,missing=34
					33:leaf=0.130354196
					34:leaf=-0.0230555218
booster[18]:
0:[f0<-0.931168556] yes=1,no=2,missing=2
	1:[f5<0.487746] yes=3,no=4,missing=4
		3:[f18<-0.913780332] yes=7,no=8,missing=8
			7:[f7<0.589416027] yes=15,no=16,missing=16
				15:[f9<0.40972504] yes=31,no=32,missing=32
					31:leaf=0.102616586
					32:leaf=0.0863879099
				16:[f8<-1.59360027] yes=33,no=34,missing=34
					33:leaf=0.100389674
					34:leaf=-0.00773935253
			8:[f11<0.0489135571] yes=17,no=18,missing=18
				17:[f7<0.187023804] yes=35,no=36,missing=36
					35:leaf=0.0853085145
					36:leaf=0.0115654944
				18:[f2<1.36070752] yes=37,no=38,missing=38
					37:leaf=-0.0168975368
					38:leaf=0.0587069951
		4:[f5<2.64194345] yes=9,no=10,missing=10
			9:[f6<-0.684967995] yes=19,no=20,missing=20
				19:[f6<-2.12051749] yes=39,no=40,missing=40
					39:leaf=0.0663060695
					40:leaf=-0.0278190207
				20:[f4<-0.484117895] yes=41,no=42,missing=42
					41:leaf=0.0968512818
					42:leaf=-0.0161548052
			10:[f18<-0.711117208] yes=21,no=22,missing=22
				21:[f2<0.0262754541] yes=43,no=44,missing=44
					43:leaf=-0.0178200193
					44:leaf=0.116360068
				22:[f2<1.66274285] yes=45,no=46,missing=46
					45:leaf=-0.0274622533
					46:leaf=0.033471521
	2:[f0<-0.500876248] yes=5,no=6,missing=6
		5:[f7<0.193424478] yes=11,no=12,missing=12
			11:[f2<0.00769214192] yes=23,no=24,missing=24
				23:[f4<-0.555857003] yes=47,no=48,missing=48
					47:leaf=-0.0215938967
					48:leaf=0.0397363491
				24:[f5<0.487746] yes=49,no=50,missing=50
					49:leaf=0.0490312539
					50:leaf=-0.0199417751
			12:[f2<0.9208619] yes=25,no=26,missing=26
				25:[f7<2.95146418] yes=51,no=52,missing=52
					51:leaf=-0.0249556955
					52:leaf=0.0362874679
				26:[f14<-0.84204936] yes=53,no=54,missing=54
					53:leaf=0.0944768339
					54:leaf=-0.00147008314
		6:[f2<1.46597254] yes=13,no=14,missing=14
			13:[f0<-0.315604568] yes=27,no=28,missing=28
				27:[f2<1.07243192] yes=55,no=56,missing=56
					55:leaf=-0.0204079766
					56:leaf=0.00876586419
				28:[f0<-0.181312099] yes=57,no=58,missing=58
					57:leaf=-0.0258393325
					58:leaf=-0.0293530952
			14:[f0<-0.112995058] yes=29,no=30,missing=30
				29:[f8<-0.441799521] yes=59,no=60,missing=60
					59:leaf=-0.021587966
					60:leaf=0.05514374
				30:[f0<0.109035328] yes=61,no=62,missing=62
					61:leaf=-0.00508287782
					62:leaf=-0.0291108433
booster[19]:
0:[f18<-0.145139381] yes=1,no=2,missing=2
	1:[f3<1.00378358] yes=3,no=4,missing=4
		3:[f5<3.2069788] yes=7,no=8,missing=8
			7:[f7<2.6629734] yes=15,no=16,missing=16
				15:[f18<-0.283254564] yes=31,no=32,missing=32
					31:leaf=-0.0277700312
					32:leaf=-0.0147479121
				16:[f7<2.74944735] yes=33,no=34,missing=34
					33:leaf=0.100968435
					34:leaf=-0.0285376348
			8:[f5<3.50126791] yes=17,no=18,missing=18
				17:[f10<-0.838897407] yes=35,no=36,missing=36
					35:leaf=0.00939540099
					36:leaf=0.105384782
				18:leaf=-0.0287511293
		4:[f12<-0.767087817] yes=9,no=10,missing=10
			9:[f1<-0.612807333] yes=19,no=20,missing=20
				19:[f18<-0.451394767] yes=37,no=38,missing=38
					37:leaf=-0.0288732331
					38:leaf=0.0037372082
				20:[f3<4.0352726] yes=39,no=40,missing=40
					39:leaf=-0.0217279103
					40:leaf=0.0616761707
			10:[f6<-0.597281396] yes=21,no=22,missing=22
				21:[f4<-0.730713725] yes=41,no=42,missing=42
					41:leaf=0.093648538
					42:leaf=-0.0216487572
				22:[f2<0.999921441] yes=43,no=44,missing=44
					43:leaf=-0.0168062244
					44:leaf=0.0610985272
	2:[f4<-0.0401030742] yes=5,no=6,missing=6
		5:[f5<1.08809602] yes=11,no=12,missing=12
			11:[f17<0.13128677] yes=23,no=24,missing=24
				23:[f6<-0.714946628] yes=45,no=46,missing=46
					45:leaf=0.0804531053
					46:leaf=0.0299118664
				24:[f3<-0.399460644] yes=47,no=48,missing=48
					47:leaf=0.0401817746
					48:leaf=0.0803574249
			12:[f14<-0.382930696] yes=25,no=26,missing=26
				25:leaf=0.0047373767
				26:[f5<1.13886034] yes=49,no=50,missing=50
					49:leaf=0.0720049068
					50:leaf=0.107397377
		6:[f3<-0.541255713] yes=13,no=14,missing=14
			13:[f14<1.10615754] yes=27,no=28,missing=28
				27:[f7<-0.0531695858] yes=51,no=52,missing=52
					51:leaf=0.00436730357
					52:leaf=0.0521169193
				28:[f18<1.13993227] yes=53,no=54,missing=54
					53:leaf=0.0533487089
					54:leaf=0.0945727155
			14:[f1<1.41597235] yes=29,no=30,missing=30
				29:[f18<2.69879532] yes=55,no=56,missing=56
					55:leaf=-0.0265148114
					56:leaf=0.012995881
				30:[f3<1.00378358] yes=57,no=58,missing=58
					57:leaf=-0.0264885072
					58:leaf=0.0888415426
booster[20]:
0:[f6<1.38710451] yes=1,no=2,missing=2
	1:[f8<-0.321161151] yes=3,no=4,missing=4
		3:[f6<0.728004634] yes=7,no=8,missing=8
			7:[f8<-0.586974502] yes=15,no=16,missing=16
				15:[f10<-0.589837611] yes=29,no=30,missing=30
					29:leaf=-0.0290604364
					30:leaf=-0.0263181124
				16:[f1<-0.428029984] yes=31,no=32,missing=32
					31:leaf=-0.0132315857
					32:leaf=-0.0272212159
			8:[f0<0.392885298] yes=17,no=18,missing=18
				17:leaf=0.112352684
				18:leaf=-0.0246364567
		4:[f0<-0.24962914] yes=9,no=10,missing=10
			9:[f2<0.38835898] yes=19,no=20,missing=20
				19:[f0<-0.86950016] yes=33,no=34,missing=34
					33:leaf=-0.0286012776
					34:leaf=0.0540713742
				20:[f0<-0.505818069] yes=35,no=36,missing=36
					35:leaf=-0.0220154785
					36:leaf=0.0110588809
			10:[f9<1.12237334] yes=21,no=22,missing=22
				21:[f11<0.919456542] yes=37,no=38,missing=38
					37:leaf=-0.0245788228
					38:leaf=0.00754246581
				22:[f9<1.24651515] yes=39,no=40,missing=40
					39:leaf=0.106148772
					40:leaf=-0.0231810417
	2:[f5<2.14753747] yes=5,no=6,missing=6
		5:[f0<0.514303684] yes=11,no=12,missing=12
			11:[f18<2.69879532] yes=23,no=24,missing=24
				23:[f10<0.989616573] yes=41,no=42,missing=42
					41:leaf=-0.0267711114
					42:leaf=0.0965383276
				24:[f7<0.254916161] yes=43,no=44,missing=44
					43:leaf=0.0785908327
					44:leaf=-0.0295055211
			12:[f5<1.518911] yes=25,no=26,missing=26
				25:[f13<-0.179878891] yes=45,no=46,missing=46
					45:leaf=-0.011740203
					46:leaf=-0.0287014227
				26:leaf=0.0842451453
		6:[f9<2.27545643] yes=13,no=14,missing=14
			13:[f11<-0.272788256] yes=27,no=28,missing=28
				27:[f5<2.33688116] yes=47,no=48,missing=48
					47:leaf=0.0145072928
					48:leaf=-0.0245652702
				28:leaf=-0.0287013743
			14:leaf=0.000211849212
booster[21]:
0:[f0<0.211510882] yes=1,no=2,missing=2
	1:[f0<0.143193841] yes=3,no=4,missing=4
		3:[f0<0.109035328] yes=7,no=8,missing=8
			7:[f0<0.0577975437] yes=15,no=16,missing=16
				15:[f11<-1.22224057] yes=29,no=30,missing=30
					29:leaf=-0.0235106386
					30:leaf=-0.0293883439
				16:[f12<-0.554575026] yes=31,no=32,missing=32
					31:leaf=0.0313644223
					32:leaf=-0.0281751435
			8:[f12<-0.570247352] yes=17,no=18,missing=18
				17:[f16<-0.884055853] yes=33,no=34,missing=34
					33:leaf=-0.0229937751
					34:leaf=0.0884488299
				18:[f9<1.24651515] yes=35,no=36,missing=36
					35:leaf=-0.0284354668
					36:leaf=0.0325385593
		4:[f12<-0.346006066] yes=9,no=10,missing=10
			9:[f4<0.568222046] yes=19,no=20,missing=20
				19:[f4<0.291977793] yes=37,no=38,missing=38
					37:leaf=-0.0228007101
					38:leaf=0.0996882766
				20:[f8<-0.746462524] yes=39,no=40,missing=40
					39:leaf=-0.0263423659
					40:leaf=0.0307762418
			10:[f6<-0.448595405] yes=21,no=22,missing=22
				21:[f1<0.260305017] yes=41,no=42,missing=42
					41:leaf=0.0780555457
					42:leaf=-0.0176061671
				22:[f15<2.31272674] yes=43,no=44,missing=44
					43:leaf=-0.0283159353
					44:leaf=0.00854815636
	2:[f2<-1.41999185] yes=5,no=6,missing=6
		5:[f4<0.633782744] yes=11,no=12,missing=12
			11:leaf=0.0882897973
			12:[f4<0.669609606] yes=23,no=24,missing=24
				23:[f11<-0.912215292] yes=45,no=46,missing=46
					45:leaf=-0.0183006953
					46:leaf=0.0314128734
				24:[f6<0.592206419] yes=47,no=48,missing=48
					47:leaf=-0.0294128861
					48:leaf=0.00298980251
		6:[f18<0.671541691] yes=13,no=14,missing=14
			13:[f4<0.128876135] yes=25,no=26,missing=26
				25:[f8<0.786928594] yes=49,no=50,missing=50
					49:leaf=-0.00130012853
					50:leaf=0.0894158408
				26:[f4<1.04430258] yes=51,no=52,missing=52
					51:leaf=0.0993959755
					52:leaf=-0.0277985334
			14:[f9<0.614943922] yes=27,no=28,missing=28
				27:[f6<0.712134361] yes=53,no=54,missing=54
					53:leaf=-0.0266540647
					54:leaf=-0.00152428146
				28:[f6<0.519769669] yes=55,no=56,missing=56
					55:leaf=-0.0273601301
					56:leaf=0.0576079264
booster[22]:
0:[f4<-0.0283480007] yes=1,no=2,missing=2
	1:[f7<0.273970157] yes=3,no=4,missing=4
		3:[f5<0.581918538] yes=7,no=8,missing=8
			7:[f3<0.638981938] yes=15,no=16,missing=16
				15:[f3<-0.636521935] yes=31,no=32,missing=32
					31:leaf=0.0131002264
					32:leaf=-0.0211507119
				16:[f8<0.0489328057] yes=33,no=34,missing=34
					33:leaf=0.0722747296
					34:leaf=-0.0101728207
			8:[f3<1.42011344] yes=17,no=18,missing=18
				17:[f12<0.913822412] yes=35,no=36,missing=36
					35:leaf=0.0660489127
					36:leaf=-0.00696665561
				18:[f10<-0.971729279] yes=37,no=38,missing=38
					37:leaf=0.0928776339
					38:leaf=-0.0217552222
		4:[f7<2.14339709] yes=9,no=10,missing=10
			9:[f10<-0.69813329] yes=19,no=20,missing=20
				19:[f8<-1.96934056] yes=39,no=40,missing=40
					39:leaf=-0.0277086385
					40:leaf=0.100012265
				20:[f5<1.08809602] yes=41,no=42,missing=42
					41:leaf=0.0573132113
					42:leaf=-0.0237426851
			10:[f7<2.74944735] yes=21,no=22,missing=22
				21:[f5<1.518911] yes=43,no=44,missing=44
					43:leaf=-0.0125215398
					44:leaf=0.0591496788
				22:[f18<-0.00500406511] yes=45,no=46,missing=46
					45:leaf=0.095772028
					46:leaf=-0.0184474476
	2:[f3<-0.67201364] yes=5,no=6,missing=6
		5:[f12<1.15187967] yes=11,no=12,missing=12
			11:[f17<-0.478610665] yes=23,no=24,missing=24
				23:[f10<0.759236276] yes=47,no=48,missing=48
					47:leaf=0.058500614
					48:leaf=0.0086533865
				24:[f8<0.895446062] yes=49,no=50,missing=50
					49:leaf=0.0857649669
					50:leaf=0.0374388285
			12:[f2<1.21109998] yes=25,no=26,missing=26
				25:[f11<-1.17379916] yes=51,no=52,missing=52
					51:leaf=0.00335736806
					52:leaf=-0.0231763124
				26:[f7<0.33691892] yes=53,no=54,missing=54
					53:leaf=-0.0142692775
					54:leaf=0.097972773
		6:[f8<1.76240647] yes=13,no=14,missing=14
			13:[f13<7.55793715] yes=27,no=28,missing=28
				27:[f17<7.25475216] yes=55,no=56,missing=56
					55:leaf=-0.027626887
					56:leaf=0.0990429744
				28:leaf=0.0973681957
			14:[f4<1.2529552] yes=29,no=30,missing=30
				29:[f7<1.45643842] yes=57,no=58,missing=58
					57:leaf=0.00697994698
					58:leaf=0.0819977373
				30:[f5<2.33688116] yes=59,no=60,missing=60
					59:leaf=-0.0280242302
					60:leaf=0.0535397902
booster[23]:
0:[f0<1.56077242] yes=1,no=2,missing=2
	1:[f4<-0.225245506] yes=3,no=4,missing=4
		3:[f8<0.241136298] yes=7,no=8,missing=8
			7:[f6<0.138523579] yes=11,no=12,missing=12
				11:[f3<0.648641586] yes=19,no=20,missing=20
					19:leaf=-0.029480461
					20:leaf=-0.025109116
				12:[f3<0.638981938] yes=21,no=22,missing=22
					21:leaf=-0.0258861836
					22:leaf=0.0193109028
			8:[f1<-0.363923579] yes=13,no=14,missing=14
				13:[f3<0.648641586] yes=23,no=24,missing=24
					23:leaf=0.00558799598
					24:leaf=0.111715592
				14:[f3<0.648641586] yes=25,no=26,missing=26
					25:leaf=-0.0278732181
					26:leaf=0.00409853505
		4:[f18<-0.711117208] yes=9,no=10,missing=10
			9:[f4<0.781282783] yes=15,no=16,missing=16
				15:[f1<-0.131417796] yes=27,no=28,missing=28
					27:leaf=0.0995594785
					28:leaf=0.00351333874
				16:[f6<0.12327373] yes=29,no=30,missing=30
					29:leaf=0.102564193
					30:leaf=-0.0107974522
			10:[f3<0.648641586] yes=17,no=18,missing=18
				17:[f4<0.981119096] yes=31,no=32,missing=32
					31:leaf=-0.0271699615
					32:leaf=0.0563120805
				18:[f18<0.671541691] yes=33,no=34,missing=34
					33:leaf=0.0922327191
					34:leaf=-0.0100443186
	2:[f14<0.537338078] yes=5,no=6,missing=6
		5:leaf=0.102466524
		6:leaf=-0.0289544761
booster[24]:
0:[f0<-0.931168556] yes=1,no=2,missing=2
	1:[f5<0.487746] yes=3,no=4,missing=4
		3:[f18<-0.913780332] yes=7,no=8,missing=8
			7:[f3<0.638981938] yes=15,no=16,missing=16
				15:[f7<0.589416027] yes=31,no=32,missing=32
					31:leaf=0.0935434923
					32:leaf=0.059206333
				16:[f10<-1.54922259] yes=33,no=34,missing=34
					33:leaf=0.0944926366
					34:leaf=-0.00608488638
			8:[f11<0.00472328905] yes=17,no=18,missing=18
				17:[f7<0.187023804] yes=35,no=36,missing=36
					35:leaf=0.0783282295
					36:leaf=0.0094814999
				18:[f2<2.20932698] yes=37,no=38,missing=38
					37:leaf=-0.0128872572
					38:leaf=0.0880068019
		4:[f5<2.64194345] yes=9,no=10,missing=10
			9:[f6<-0.634645522] yes=19,no=20,missing=20
				19:[f6<-2.12051749] yes=39,no=40,missing=40
					39:leaf=0.0697772726
					40:leaf=-0.0271328576
				20:[f3<-0.532918632] yes=41,no=42,missing=42
					41:leaf=0.0904421434
					42:leaf=-0.016207654
			10:[f18<-0.711117208] yes=21,no=22,missing=22
				21:[f2<0.0262754541] yes=43,no=44,missing=44
					43:leaf=-0.0176797286
					44:leaf=0.106218599
				22:[f5<3.2069788] yes=45,no=46,missing=46
					45:leaf=0.0228881314
					46:leaf=-0.0287463199
	2:[f0<-0.500876248] yes=5,no=6,missing=6
		5:[f3<-0.479970217] yes=11,no=12,missing=12
			11:[f3<-0.65024358] yes=23,no=24,missing=24
				23:[f5<-0.857241035] yes=47,no=48,missing=48
					47:leaf=0.030337248
					48:leaf=-0.0127415704
				24:[f5<0.943199754] yes=49,no=50,missing=50
					49:leaf=0.088132821
					50:leaf=-0.01316447
			12:[f3<3.66955256] yes=25,no=26,missing=26
				25:[f2<0.893122971] yes=51,no=52,missing=52
					51:leaf=-0.0276280697
					52:leaf=-0.00887184776
				26:[f3<4.0352726] yes=53,no=54,missing=54
					53:leaf=0.10904111
					54:leaf=-0.0235899147
		6:[f2<1.18174875] yes=13,no=14,missing=14
			13:[f0<-0.315604568] yes=27,no=28,missing=28
				27:[f3<-0.514915287] yes=55,no=56,missing=56
					55:leaf=-0.00286029419
					56:leaf=-0.0259758383
				28:[f3<2.509377] yes=57,no=58,missing=58
					57:leaf=-0.0290068295
					58:leaf=0.0309158415
			14:[f0<-0.112995058] yes=29,no=30,missing=30
				29:[f10<-0.121511735] yes=59,no=60,missing=60
					59:leaf=-0.00829908904
					60:leaf=0.0457538478
				30:[f10<-0.606441617] yes=61,no=62,missing=62
					61:leaf=0.0205762405
					62:leaf=-0.0267148502
booster[25]:
0:[f18<-0.139134362] yes=1,no=2,missing=2
	1:[f3<1.00378358] yes=3,no=4,missing=4
		3:[f5<3.2069788] yes=7,no=8,missing=8
			7:[f7<2.6629734] yes=15,no=16,missing=16
				15:[f18<-0.283254564] yes=31,no=32,missing=32
					31:leaf=-0.02756547
					32:leaf=-0.0141261173
				16:[f7<2.74944735] yes=33,no=34,missing=34
					33:leaf=0.0913178772
					34:leaf=-0.0265955925
			8:[f5<3.50126791] yes=17,no=18,missing=18
				17:[f3<0.596338391] yes=35,no=36,missing=36
					35:leaf=0.0945759341
					36:leaf=-0.0113944942
				18:leaf=-0.0286087934
		4:[f12<-0.767087817] yes=9,no=10,missing=10
			9:[f0<-0.693689942] yes=19,no=20,missing=20
				19:leaf=-0.0287024062
				20:[f15<0.40191865] yes=37,no=38,missing=38
					37:leaf=0.059951961
					38:leaf=-0.0196050536
			10:[f8<-0.392726302] yes=21,no=22,missing=22
				21:[f11<2.4241395] yes=39,no=40,missing=40
					39:leaf=0.0834569559
					40:leaf=-0.0213297289
				22:[f9<0.299158245] yes=41,no=42,missing=42
					41:leaf=-0.0269768368
					42:leaf=0.00803603232
	2:[f6<0.744704902] yes=5,no=6,missing=6
		5:[f2<-0.190122426] yes=11,no=12,missing=12
			11:[f18<0.700130999] yes=23,no=24,missing=24
				23:[f5<-0.382598966] yes=43,no=44,missing=44
					43:leaf=-0.0242882352
					44:leaf=0.0040327562
				24:[f5<0.534832239] yes=45,no=46,missing=46
					45:leaf=0.0351141728
					46:leaf=0.0910667107
			12:[f5<1.13886034] yes=25,no=26,missing=26
				25:[f11<0.298820794] yes=47,no=48,missing=48
					47:leaf=0.0323759131
					48:leaf=0.0599131174
				26:[f3<2.47925282] yes=49,no=50,missing=50
					49:leaf=0.0962949544
					50:leaf=-0.0170682743
		6:[f3<-0.541255713] yes=13,no=14,missing=14
			13:[f16<1.16841757] yes=27,no=28,missing=28
				27:[f5<0.216425672] yes=51,no=52,missing=52
					51:leaf=-9.12110772e-05
					52:leaf=0.0920575261
				28:[f14<1.17885256] yes=53,no=54,missing=54
					53:leaf=0.0551361516
					54:leaf=0.093747817
			14:[f5<-0.891194284] yes=29,no=30,missing=30
				29:[f0<0.670678377] yes=55,no=56,missing=56
					55:leaf=-0.025384903
					56:leaf=0.100381576
				30:[f18<2.69879532] yes=57,no=58,missing=58
					57:leaf=-0.0277951546
					58:leaf=0.00984324235
booster[26]:
0:[f6<1.38710451] yes=1,no=2,missing=2
	1:[f8<-0.336371899] yes=3,no=4,missing=4
		3:[f6<0.728004634] yes=7,no=8,missing=8
			7:[f8<-0.586974502] yes=15,no=16,missing=16
				15:[f6<-0.589656472] yes=31,no=32,missing=32
					31:leaf=-0.0290061682
					32:leaf=-0.0266038161
				16:[f1<-0.428029984] yes=33,no=34,missing=34
					33:leaf=-0.0137432441
					34:leaf=-0.0268587265
			8:[f4<0.128876135] yes=17,no=18,missing=18
				17:leaf=0.102381527
				18:leaf=-0.0231241491
		4:[f1<-0.309700578] yes=9,no=10,missing=10
			9:[f2<0.38835898] yes=19,no=20,missing=20
				19:[f4<-0.652836382] yes=35,no=36,missing=36
					35:leaf=0.0719077736
					36:leaf=0.0162352901
				20:[f14<-0.408239692] yes=37,no=38,missing=38
					37:leaf=0.0181821771
					38:leaf=-0.0189340673
			10:[f9<1.12237334] yes=21,no=22,missing=22
				21:[f1<0.518482447] yes=39,no=40,missing=40
					39:leaf=-0.00965225138
					40:leaf=-0.0274045207
				22:[f9<1.24651515] yes=41,no=42,missing=42
					41:leaf=0.0973918289
					42:leaf=-0.0245489459
	2:[f5<2.14753747] yes=5,no=6,missing=6
		5:[f1<1.09805381] yes=11,no=12,missing=12
			11:[f4<1.09720051] yes=23,no=24,missing=24
				23:[f9<-0.0659688935] yes=43,no=44,missing=44
					43:leaf=-0.0111625744
					44:leaf=0.0584797561
				24:[f18<2.69879532] yes=45,no=46,missing=46
					45:leaf=0.091707103
					46:leaf=0.0209374689
			12:[f5<1.518911] yes=25,no=26,missing=26
				25:[f4<1.82601511] yes=47,no=48,missing=48
					47:leaf=-0.0293698367
					48:leaf=0.00654123118
				26:leaf=0.0807262734
		6:[f9<2.27545643] yes=13,no=14,missing=14
			13:[f11<-0.272788256] yes=27,no=28,missing=28
				27:[f12<1.70274413] yes=49,no=50,missing=50
					49:leaf=0.0137375118
					50:leaf=-0.0247032326
				28:leaf=-0.0286079105
			14:[f1<-0.760916293] yes=29,no=30,missing=30
				29:leaf=-0.0159778651
				30:leaf=0.00851904135
booster[27]:
0:[f0<0.186761901] yes=1,no=2,missing=2
	1:[f0<0.117614597] yes=3,no=4,missing=4
		3:[f0<0.0577975437] yes=7,no=8,missing=8
			7:[f11<-1.22224057] yes=15,no=16,missing=16
				15:[f4<-0.12091922] yes=29,no=30,missing=30
					29:leaf=-0.0282515269
					30:leaf=0.0597095974
				16:leaf=-0.0292264652
			8:[f12<-0.554575026] yes=17,no=18,missing=18
				17:[f2<-1.41999185] yes=31,no=32,missing=32
					31:leaf=-0.0251834374
					32:leaf=0.074387826
				18:[f10<-0.63964957] yes=33,no=34,missing=34
					33:leaf=0.0123839211
					34:leaf=-0.0284483377
		4:[f12<-0.346006066] yes=9,no=10,missing=10
			9:[f4<0.55129236] yes=19,no=20,missing=20
				19:[f3<-0.532918632] yes=35,no=36,missing=36
					35:leaf=0.0946382657
					36:leaf=-0.0260414984
				20:[f8<-0.715791762] yes=37,no=38,missing=38
					37:leaf=-0.0266701225
					38:leaf=0.0303229131
			10:[f13<2.41532993] yes=21,no=22,missing=22
				21:[f9<1.57216918] yes=39,no=40,missing=40
					39:leaf=-0.0284990948
					40:leaf=0.0296613667
				22:leaf=0.071695067
	2:[f2<-1.41999185] yes=5,no=6,missing=6
		5:[f4<0.633782744] yes=11,no=12,missing=12
			11:leaf=0.0715029016
			12:[f6<0.592206419] yes=23,no=24,missing=24
				23:[f4<0.714672625] yes=41,no=42,missing=42
					41:leaf=-0.0105672348
					42:leaf=-0.0291371793
				24:[f0<1.66324806] yes=43,no=44,missing=44
					43:leaf=0.0319065526
					44:leaf=-0.020844942
		6:[f16<0.635893941] yes=13,no=14,missing=14
			13:[f3<-0.14452152] yes=25,no=26,missing=26
				25:[f4<0.0377742983] yes=45,no=46,missing=46
					45:leaf=0.0271211024
					46:leaf=0.091147989
				26:[f8<1.02017391] yes=47,no=48,missing=48
					47:leaf=-0.0290435608
					48:leaf=0.0250024889
			14:[f6<0.695142865] yes=27,no=28,missing=28
				27:[f3<-0.541255713] yes=49,no=50,missing=50
					49:leaf=-0.029313419
					50:leaf=-0.0163551085
				28:[f16<0.911858439] yes=51,no=52,missing=52
					51:leaf=0.0753252581
					52:leaf=-0.00742262974
booster[28]:
0:[f4<-0.0401030742] yes=1,no=2,missing=2
	1:[f7<0.33691892] yes=3,no=4,missing=4
		3:[f7<-0.738000512] yes=7,no=8,missing=8
			7:[f9<0.131397128] yes=15,no=16,missing=16
				15:[f3<0.638981938] yes=31,no=32,missing=32
					31:leaf=0.00223422307
					32:leaf=0.0466357879
				16:[f8<-1.7812984] yes=33,no=34,missing=34
					33:leaf=-0.0275520179
					34:leaf=0.0604564026
			8:[f3<1.12303114] yes=17,no=18,missing=18
				17:[f13<1.10805964] yes=35,no=36,missing=36
					35:leaf=-0.0161981788
					36:leaf=0.03142846
				18:[f0<-0.454580277] yes=37,no=38,missing=38
					37:leaf=-0.00945128407
					38:leaf=0.078899622
		4:[f7<2.14339709] yes=9,no=10,missing=10
			9:[f6<0.323427945] yes=19,no=20,missing=20
				19:[f18<-1.46023607] yes=39,no=40,missing=40
					39:leaf=-0.0265806764
					40:leaf=0.070125483
				20:[f7<0.729279459] yes=41,no=42,missing=42
					41:leaf=0.0222763997
					42:leaf=-0.0258953422
			10:[f7<2.74944735] yes=21,no=22,missing=22
				21:[f3<4.0352726] yes=43,no=44,missing=44
					43:leaf=-0.0112679433
					44:leaf=0.0933995992
				22:[f18<-0.00500406511] yes=45,no=46,missing=46
					45:leaf=0.0880757347
					46:leaf=-0.0182956737
	2:[f3<-0.683495402] yes=5,no=6,missing=6
		5:[f12<1.11767817] yes=11,no=12,missing=12
			11:[f9<0.612305939] yes=23,no=24,missing=24
				23:[f11<0.570092857] yes=47,no=48,missing=48
					47:leaf=0.0660380796
					48:leaf=-0.012112896
				24:[f14<0.738456368] yes=49,no=50,missing=50
					49:leaf=0.0462171584
					50:leaf=-0.0286600571
			12:[f2<1.21109998] yes=25,no=26,missing=26
				25:[f11<-1.17379916] yes=51,no=52,missing=52
					51:leaf=0.00801029056
					52:leaf=-0.0211165082
				26:[f15<-0.840851724] yes=53,no=54,missing=54
					53:leaf=0.0685515925
					54:leaf=-0.0178850666
		6:[f8<1.76240647] yes=13,no=14,missing=14
			13:[f13<7.55793715] yes=27,no=28,missing=28
				27:[f2<0.351599187] yes=55,no=56,missing=56
					55:leaf=-0.0286087673
					56:leaf=-0.0185391549
				28:leaf=0.0838903487
			14:[f4<1.2529552] yes=29,no=30,missing=30
				29:[f7<0.589416027] yes=57,no=58,missing=58
					57:leaf=0.00440640282
					58:leaf=0.0706871673
				30:[f4<1.3158493] yes=59,no=60,missing=60
					59:leaf=-0.00518854568
					60:leaf=-0.0268580522
booster[29]:
0:[f2<-1.41999185] yes=1,no=2,missing=2
	1:leaf=0.0928969532
	2:[f3<0.648641586] yes=3,no=4,missing=4
		3:[f2<-1.245085] yes=5,no=6,missing=6
			5:[f8<-0.705568135] yes=9,no=10,missing=10
				9:[f9<-0.201202124] yes=17,no=18,missing=18
					17:leaf=0.108152702
					18:leaf=0.0458188467
				10:[f1<0.7843225] yes=19,no=20,missing=20
					19:leaf=-0.026745392
					20:leaf=0.0807537064
			6:[f6<0.108646937] yes=11,no=12,missing=12
				11:[f4<0.819486797] yes=21,no=22,missing=22
					21:leaf=-0.0291721355
					22:leaf=0.0838752612
				12:[f0<-0.360296249] yes=23,no=24,missing=24
					23:leaf=0.00298597012
					24:leaf=-0.0280059036
		4:[f2<-0.303140372] yes=7,no=8,missing=8
			7:[f4<0.698997259] yes=13,no=14,missing=14
				13:[f9<0.0875821337] yes=25,no=26,missing=26
					25:leaf=0.0977819115
					26:leaf=-0.0254427381
				14:[f8<0.972536147] yes=27,no=28,missing=28
					27:leaf=0.00888226833
					28:leaf=-0.0291569568
			8:[f3<3.25072479] yes=15,no=16,missing=16
				15:[f16<0.683581352] yes=29,no=30,missing=30
					29:leaf=0.0120510794
					30:leaf=-0.0270313825
				16:[f3<3.66955256] yes=31,no=32,missing=32
					31:leaf=0.113892473
					32:leaf=-0.0223730206
booster[30]:
0:[f0<-0.915720284] yes=1,no=2,missing=2
	1:[f18<-1.11935842] yes=3,no=4,missing=4
		3:[f5<1.01747429] yes=7,no=8,missing=8
			7:[f3<1.00378358] yes=15,no=16,missing=16
				15:[f7<0.686749578] yes=31,no=32,missing=32
					31:leaf=0.0861410573
					32:leaf=0.0691571608
				16:[f3<3.21149731] yes=33,no=34,missing=34
					33:leaf=-0.0207889788
					34:leaf=0.0815932751
			8:[f5<2.30465698] yes=17,no=18,missing=18
				17:[f6<-2.12051749] yes=35,no=36,missing=36
					35:leaf=0.0547498763
					36:leaf=-0.0285641849
				18:leaf=0.0849973187
		4:[f7<0.197656274] yes=9,no=10,missing=10
			9:[f11<0.0644982457] yes=19,no=20,missing=20
				19:[f5<0.181130871] yes=37,no=38,missing=38
					37:leaf=0.0788443312
					38:leaf=0.0168131813
				20:[f11<1.68424606] yes=39,no=40,missing=40
					39:leaf=-0.0133443912
					40:leaf=0.056266468
			10:[f2<1.09429526] yes=21,no=22,missing=22
				21:[f12<-1.16346753] yes=41,no=42,missing=42
					41:leaf=0.0153979613
					42:leaf=-0.0241163354
				22:[f7<0.937016785] yes=43,no=44,missing=44
					43:leaf=-0.0142125683
					44:leaf=0.0834157094
	2:[f0<-0.437501013] yes=5,no=6,missing=6
		5:[f3<-0.514915287] yes=11,no=12,missing=12
			11:[f3<-0.636521935] yes=23,no=24,missing=24
				23:[f5<-0.857241035] yes=45,no=46,missing=46
					45:leaf=0.0271828417
					46:leaf=-0.0135708693
				24:[f5<0.487746] yes=47,no=48,missing=48
					47:leaf=0.0823055655
					48:leaf=-0.00440920377
			12:[f2<1.18174875] yes=25,no=26,missing=26
				25:[f7<2.95146418] yes=49,no=50,missing=50
					49:leaf=-0.0255508181
					50:leaf=0.0501679666
				26:[f3<3.66955256] yes=51,no=52,missing=52
					51:leaf=0.00492618745
					52:leaf=0.0902713314
		6:[f2<1.53156257] yes=13,no=14,missing=14
			13:[f0<-0.181312099] yes=27,no=28,missing=28
				27:[f3<-0.514915287] yes=53,no=54,missing=54
					53:leaf=-0.0110616861
					54:leaf=-0.0262815487
				28:[f5<2.91268945] yes=55,no=56,missing=56
					55:leaf=-0.0290440004
					56:leaf=-0.0145052848
			14:[f0<-0.0959158018] yes=29,no=30,missing=30
				29:[f7<0.165683731] yes=57,no=58,missing=58
					57:leaf=0.0503178611
					58:leaf=-0.019011071
				30:[f18<-0.283254564] yes=59,no=60,missing=60
					59:leaf=0.0187652912
					60:leaf=-0.0256675761
booster[31]:
0:[f18<-0.211194456] yes=1,no=2,missing=2
	1:[f3<1.42011344] yes=3,no=4,missing=4
		3:[f5<3.2069788] yes=7,no=8,missing=8
			7:[f7<2.6629734] yes=15,no=16,missing=16
				15:[f18<-0.357316315] yes=31,no=32,missing=32
					31:leaf=-0.028030375
					32:leaf=-0.0196533706
				16:[f7<2.74944735] yes=33,no=34,missing=34
					33:leaf=0.0791378394
					34:leaf=-0.0264854822
			8:[f5<3.50126791] yes=17,no=18,missing=18
				17:[f6<-1.38245881] yes=35,no=36,missing=36
					35:leaf=-0.0227228701
					36:leaf=0.0843997076
				18:leaf=-0.0284841061
		4:[f10<-0.940596819] yes=9,no=10,missing=10
			9:[f0<-0.706045628] yes=19,no=20,missing=20
				19:leaf=-0.0284808762
				20:[f5<-0.547569215] yes=37,no=38,missing=38
					37:leaf=0.0710751638
					38:leaf=-0.0168391801
			10:[f8<-0.458157271] yes=21,no=22,missing=22
				21:[f8<-0.99182868] yes=39,no=40,missing=40
					39:leaf=0.045850087
					40:leaf=0.0917102322
				22:leaf=-0.0216796659
	2:[f4<-0.00189908082] yes=5,no=6,missing=6
		5:[f4<-0.914386809] yes=11,no=12,missing=12
			11:[f8<-0.210746378] yes=23,no=24,missing=24
				23:[f2<1.8376497] yes=41,no=42,missing=42
					41:leaf=0.0842682421
					42:leaf=0.0109373871
				24:[f1<-0.571326673] yes=43,no=44,missing=44
					43:leaf=-0.0206760932
					44:leaf=0.0528607965
			12:[f0<-0.24962914] yes=25,no=26,missing=26
				25:[f3<-0.683495402] yes=45,no=46,missing=46
					45:leaf=0.0468613096
					46:leaf=-0.0156017868
				26:[f5<-0.15969038] yes=47,no=48,missing=48
					47:leaf=0.0253590643
					48:leaf=0.0642178282
		6:[f3<-0.541255713] yes=13,no=14,missing=14
			13:[f0<0.973990321] yes=27,no=28,missing=28
				27:[f9<0.0515128374] yes=49,no=50,missing=50
					49:leaf=0.00821228884
					50:leaf=0.0557577983
				28:[f12<0.781316161] yes=51,no=52,missing=52
					51:leaf=0.00554038864
					52:leaf=0.0817166567
			14:[f1<1.41597235] yes=29,no=30,missing=30
				29:[f18<2.51183367] yes=53,no=54,missing=54
					53:leaf=-0.0272821914
					54:leaf=-0.00133150478
				30:[f3<1.00378358] yes=55,no=56,missing=56
					55:leaf=-0.0267699752
					56:leaf=0.074724786
booster[32]:
0:[f6<1.38710451] yes=1,no=2,missing=2
	1:[f3<-0.442888439] yes=3,no=4,missing=4
		3:[f8<0.028485626] yes=7,no=8,missing=8
			7:[f3<-0.532918632] yes=15,no=16,missing=16
				15:[f8<-0.0880632997] yes=27,no=28,missing=28
					27:leaf=-0.0288554374
					28:leaf=-0.0257971417
				16:[f10<-0.185115457] yes=29,no=30,missing=30
					29:leaf=-0.0262334328
					30:leaf=0.0200495813
			8:[f1<-0.020765679] yes=17,no=18,missing=18
				17:[f3<-0.685089469] yes=31,no=32,missing=32
					31:leaf=-0.021715397
					32:leaf=0.0270146187
				18:[f1<0.363872856] yes=33,no=34,missing=34
					33:leaf=-0.0124464761
					34:leaf=-0.0286570434
		4:[f3<0.648641586] yes=9,no=10,missing=10
			9:[f0<-0.266708404] yes=19,no=20,missing=20
				19:[f6<-0.589656472] yes=35,no=36,missing=36
					35:leaf=-0.0230401997
					36:leaf=0.0833576098
				20:[f7<-0.890554667] yes=37,no=38,missing=38
					37:leaf=0.0526557565
					38:leaf=-0.0218174364
			10:[f9<1.12237334] yes=21,no=22,missing=22
				21:[f6<0.548363149] yes=39,no=40,missing=40
					39:leaf=-0.0255656224
					40:leaf=-0.0037908738
				22:[f0<-0.266708404] yes=41,no=42,missing=42
					41:leaf=-0.0097242184
					42:leaf=0.089776881
	2:[f5<2.14753747] yes=5,no=6,missing=6
		5:[f3<3.21149731] yes=11,no=12,missing=12
			11:[f0<0.514303684] yes=23,no=24,missing=24
				23:[f4<0.954670191] yes=43,no=44,missing=44
					43:leaf=0.0264318194
					44:leaf=0.0840602294
				24:[f5<1.518911] yes=45,no=46,missing=46
					45:leaf=-0.0257551968
					46:leaf=0.0735017806
			12:leaf=-0.0297585037
		6:[f11<-0.272788256] yes=13,no=14,missing=14
			13:[f12<1.70274413] yes=25,no=26,missing=26
				25:leaf=0.0127327219
				26:leaf=-0.0241322536
			14:leaf=-0.0285064429
booster[33]:
0:[f0<0.186761901] yes=1,no=2,missing=2
	1:[f0<0.117614597] yes=3,no=4,missing=4
		3:[f0<0.0577975437] yes=7,no=8,missing=8
			7:[f11<-1.22224057] yes=15,no=16,missing=16
				15:[f4<-0.0812458396] yes=29,no=30,missing=30
					29:leaf=-0.028175367
					30:leaf=0.0579126142
				16:leaf=-0.0291001685
			8:[f10<-0.527572691] yes=17,no=18,missing=18
				17:[f6<-0.822763503] yes=31,no=32,missing=32
					31:leaf=-0.0258083027
					32:leaf=0.0511315875
				18:[f15<2.31272674] yes=33,no=34,missing=34
					33:leaf=-0.0282591619
					34:leaf=0.0332205556
		4:[f14<-0.413403183] yes=9,no=10,missing=10
			9:[f4<0.541232288] yes=19,no=20,missing=20
				19:[f4<0.330449164] yes=35,no=36,missing=36
					35:leaf=-0.0236305054
					36:leaf=0.0860603973
				20:[f8<-0.766909659] yes=37,no=38,missing=38
					37:leaf=-0.0260967761
					38:leaf=0.0296710972
			10:[f15<1.84595346] yes=21,no=22,missing=22
				21:[f10<-0.48630774] yes=39,no=40,missing=40
					39:leaf=0.0248832107
					40:leaf=-0.0285901669
				22:leaf=0.0539022647
	2:[f2<-1.41999185] yes=5,no=6,missing=6
		5:[f4<0.633782744] yes=11,no=12,missing=12
			11:leaf=0.0718709156
			12:[f6<0.592206419] yes=23,no=24,missing=24
				23:[f4<0.714672625] yes=41,no=42,missing=42
					41:leaf=-0.012334493
					42:leaf=-0.0289622396
				24:[f1<0.798804462] yes=43,no=44,missing=44
					43:leaf=0.031620916
					44:leaf=-0.0205191765
		6:[f18<0.671541691] yes=13,no=14,missing=14
			13:[f4<0.0774476752] yes=25,no=26,missing=26
				25:[f8<0.786928594] yes=45,no=46,missing=46
					45:leaf=-0.0121810799
					46:leaf=0.0761448294
				26:[f7<-1.00129402] yes=47,no=48,missing=48
					47:leaf=0.0499989502
					48:leaf=0.083858788
			14:[f6<0.695142865] yes=27,no=28,missing=28
				27:[f18<0.783635139] yes=49,no=50,missing=50
					49:leaf=-0.0101602226
					50:leaf=-0.0277059674
				28:[f18<1.0122112] yes=51,no=52,missing=52
					51:leaf=0.064600043
					52:leaf=-0.0104496861
booster[34]:
0:[f4<-0.0283480007] yes=1,no=2,missing=2
	1:[f5<0.758492112] yes=3,no=4,missing=4
		3:[f5<-0.627541065] yes=7,no=8,missing=8
			7:[f9<0.131397128] yes=15,no=16,missing=16
				15:[f3<0.638981938] yes=31,no=32,missing=32
					31:leaf=-0.00291490764
					32:leaf=0.0430451334
				16:[f9<1.82874501] yes=33,no=34,missing=34
					33:leaf=0.0712389126
					34:leaf=0.0255348273
			8:[f3<-0.593744278] yes=17,no=18,missing=18
				17:[f5<-0.524609029] yes=35,no=36,missing=36
					35:leaf=-0.0218539275
					36:leaf=0.0491852202
				18:[f13<1.23721659] yes=37,no=38,missing=38
					37:leaf=-0.017391054
					38:leaf=0.0374489874
		4:[f5<0.876207829] yes=9,no=10,missing=10
			9:[f0<-0.418906033] yes=19,no=20,missing=20
				19:[f9<-0.924510181] yes=39,no=40,missing=40
					39:leaf=0.0658215955
					40:leaf=0.00213845773
				20:[f3<0.412728608] yes=41,no=42,missing=42
					41:leaf=0.100909226
					42:leaf=0.046148017
			10:[f10<-0.762103975] yes=21,no=22,missing=22
				21:[f5<2.64194345] yes=43,no=44,missing=44
					43:leaf=0.0890668705
					44:leaf=0.0447657928
				22:[f5<1.08809602] yes=45,no=46,missing=46
					45:leaf=0.0435951315
					46:leaf=-0.00527830375
	2:[f3<-0.683495402] yes=5,no=6,missing=6
		5:[f12<1.01371169] yes=11,no=12,missing=12
			11:[f11<0.576794505] yes=23,no=24,missing=24
				23:[f17<-0.678616285] yes=47,no=48,missing=48
					47:leaf=0.0377020985
					48:leaf=0.0777250677
				24:[f3<-0.699451089] yes=49,no=50,missing=50
					49:leaf=-0.027777303
					50:leaf=0.0293047763
			12:[f12<1.15187967] yes=25,no=26,missing=26
				25:[f5<0.868449926] yes=51,no=52,missing=52
					51:leaf=0.0388971083
					52:leaf=-0.0260251611
				26:[f6<0.605550051] yes=53,no=54,missing=54
					53:leaf=0.014037326
					54:leaf=-0.0188198294
		6:[f0<-0.130074322] yes=13,no=14,missing=14
			13:[f3<0.847036004] yes=27,no=28,missing=28
				27:[f5<2.14753747] yes=55,no=56,missing=56
					55:leaf=-0.0180429723
					56:leaf=0.0994958207
				28:[f3<2.5184803] yes=57,no=58,missing=58
					57:leaf=-0.0285095107
					58:leaf=0.00045212009
			14:[f3<1.12303114] yes=29,no=30,missing=30
				29:[f3<-0.551468313] yes=59,no=60,missing=60
					59:leaf=-0.00946694426
					60:leaf=-0.0286435578
				30:[f3<1.42011344] yes=61,no=62,missing=62
					61:leaf=0.0538566411
					62:leaf=-0.0278715491
booster[35]:
0:[f2<-1.41999185] yes=1,no=2,missing=2
	1:leaf=0.0851460546
	2:[f3<0.648641586] yes=3,no=4,missing=4
		3:[f2<-1.245085] yes=5,no=6,missing=6
			5:[f16<-0.764866889] yes=9,no=10,missing=10
				9:[f4<0.684303463] yes=17,no=18,missing=18
					17:leaf=0.0436563864
					18:leaf=0.104449667
				10:[f4<0.857690811] yes=19,no=20,missing=20
					19:leaf=-0.0247486345
					20:leaf=0.0684726983
			6:[f6<0.102305196] yes=11,no=12,missing=12
				11:[f4<0.892956018] yes=21,no=22,missing=22
					21:leaf=-0.0289657358
					22:leaf=0.0954341814
				12:[f0<-0.360296249] yes=23,no=24,missing=24
					23:leaf=0.00302542304
					24:leaf=-0.0277982689
		4:[f2<-0.303140372] yes=7,no=8,missing=8
			7:[f4<0.912057996] yes=13,no=14,missing=14
				13:[f9<0.0875821337] yes=25,no=26,missing=26
					25:leaf=0.0894145146
					26:leaf=-0.0237176996
				14:[f8<0.972536147] yes=27,no=28,missing=28
					27:leaf=0.00883087981
					28:leaf=-0.0289913118
			8:[f3<3.25072479] yes=15,no=16,missing=16
				15:[f18<0.523418128] yes=29,no=30,missing=30
					29:leaf=0.0143874232
					30:leaf=-0.0277548768
				16:[f3<3.66955256] yes=31,no=32,missing=32
					31:leaf=0.103729568
					32:leaf=-0.021610396
booster[36]:
0:[f0<-0.931168556] yes=1,no=2,missing=2
	1:[f5<0.487746] yes=3,no=4,missing=4
		3:[f18<-0.913780332] yes=7,no=8,missing=8
			7:[f9<0.380756646] yes=15,no=16,missing=16
				15:[f11<2.11259222] yes=31,no=32,missing=32
					31:leaf=0.0789187774
					32:leaf=0.0320974104
				16:[f10<-1.54922259] yes=33,no=34,missing=34
					33:leaf=0.0804649815
					34:leaf=0.0156352241
			8:[f11<0.0489135571] yes=17,no=18,missing=18
				17:[f9<0.0820556283] yes=35,no=36,missing=36
					35:leaf=0.0680385306
					36:leaf=0.0175929368
				18:[f2<1.21109998] yes=37,no=38,missing=38
					37:leaf=-0.0185746942
					38:leaf=0.0448603183
		4:[f5<2.64194345] yes=9,no=10,missing=10
			9:[f8<-0.511319935] yes=19,no=20,missing=20
				19:[f6<-2.12051749] yes=39,no=40,missing=40
					39:leaf=0.0595685653
					40:leaf=-0.0274588
				20:[f11<-0.0162087847] yes=41,no=42,missing=42
					41:leaf=0.0783748031
					42:leaf=-0.0189422574
			10:[f18<-0.711117208] yes=21,no=22,missing=22
				21:[f2<0.0262754541] yes=43,no=44,missing=44
					43:leaf=-0.017553864
					44:leaf=0.0943123549
				22:[f2<1.66274285] yes=45,no=46,missing=46
					45:leaf=-0.0270357616
					46:leaf=0.0329109728
	2:[f0<-0.500876248] yes=5,no=6,missing=6
		5:[f9<0.0425824225] yes=11,no=12,missing=12
			11:[f2<0.239487916] yes=23,no=24,missing=24
				23:[f4<-0.555857003] yes=47,no=48,missing=48
					47:leaf=-0.0156551357
					48:leaf=0.031503167
				24:[f5<0.487746] yes=49,no=50,missing=50
					49:leaf=0.0507811606
					50:leaf=-0.0170066189
			12:[f4<0.698997259] yes=25,no=26,missing=26
				25:[f4<-0.62344867] yes=51,no=52,missing=52
					51:leaf=-0.0197876841
					52:leaf=0.0257345941
				26:[f15<2.43340731] yes=53,no=54,missing=54
					53:leaf=-0.0285046641
					54:leaf=0.0232412722
		6:[f2<1.32138205] yes=13,no=14,missing=14
			13:[f0<-0.315604568] yes=27,no=28,missing=28
				27:[f9<-0.0249129757] yes=55,no=56,missing=56
					55:leaf=-0.0118567972
					56:leaf=-0.0261809882
				28:[f0<-0.181312099] yes=57,no=58,missing=58
					57:leaf=-0.0245786421
					58:leaf=-0.0288958941
			14:[f0<-0.33502546] yes=29,no=30,missing=30
				29:[f10<-0.14983198] yes=59,no=60,missing=60
					59:leaf=-0.00118174928
					60:leaf=0.0699034706
				30:[f0<0.0385971181] yes=61,no=62,missing=62
					61:leaf=0.00445001572
					62:leaf=-0.0273206141
booster[37]:
0:[f14<-0.356521219] yes=1,no=2,missing=2
	1:[f3<1.40703773] yes=3,no=4,missing=4
		3:[f5<3.2069788] yes=7,no=8,missing=8
			7:[f7<2.6629734] yes=15,no=16,missing=16
				15:[f9<2.27545643] yes=31,no=32,missing=32
					31:leaf=-0.0273824874
					32:leaf=-0.0162159503
				16:[f7<2.74944735] yes=33,no=34,missing=34
					33:leaf=0.0685498938
					34:leaf=-0.0260380004
			8:[f5<3.50126791] yes=17,no=18,missing=18
				17:[f6<-1.38245881] yes=35,no=36,missing=36
					35:leaf=-0.0211708471
					36:leaf=0.0787021518
				18:leaf=-0.0283334386
		4:[f0<-0.749213874] yes=9,no=10,missing=10
			9:[f10<-0.927234292] yes=19,no=20,missing=20
				19:leaf=-0.0282939468
				20:leaf=0.0458000414
			10:[f15<0.957391441] yes=21,no=22,missing=22
				21:[f15<-1.13618302] yes=37,no=38,missing=38
					37:leaf=0.0301827025
					38:leaf=0.0817037821
				22:[f3<2.47925282] yes=39,no=40,missing=40
					39:leaf=0.057513006
					40:leaf=-0.0262825917
	2:[f4<-0.00189908082] yes=5,no=6,missing=6
		5:[f0<-0.209420174] yes=11,no=12,missing=12
			11:[f6<-0.439255804] yes=23,no=24,missing=24
				23:[f3<-0.541255713] yes=41,no=42,missing=42
					41:leaf=0.0734471381
					42:leaf=0.0101963803
				24:[f3<-0.723856568] yes=43,no=44,missing=44
					43:leaf=0.029366998
					44:leaf=-0.016996244
			12:[f5<-0.15969038] yes=25,no=26,missing=26
				25:[f8<0.0591563955] yes=45,no=46,missing=46
					45:leaf=-0.0124233244
					46:leaf=0.030152088
				26:[f5<0.16991359] yes=47,no=48,missing=48
					47:leaf=0.0895071477
					48:leaf=0.0443190411
		6:[f3<-0.541255713] yes=13,no=14,missing=14
			13:[f14<1.14359868] yes=27,no=28,missing=28
				27:[f7<-0.0531695858] yes=49,no=50,missing=50
					49:leaf=0.00103395293
					50:leaf=0.04920353
				28:[f11<-1.17379916] yes=51,no=52,missing=52
					51:leaf=0.0428869985
					52:leaf=0.0762700066
			14:[f1<1.41597235] yes=29,no=30,missing=30
				29:[f12<2.44278216] yes=53,no=54,missing=54
					53:leaf=-0.0274059717
					54:leaf=-0.000923238054
				30:[f3<1.00378358] yes=55,no=56,missing=56
					55:leaf=-0.0268056877
					56:leaf=0.0705323964
booster[38]:
0:[f3<-0.399460644] yes=1,no=2,missing=2
	1:[f8<-0.106465764] yes=3,no=4,missing=4
		3:[f3<-0.532918632] yes=7,no=8,missing=8
			7:leaf=-0.0286698136
			8:[f10<-0.112473011] yes=15,no=16,missing=16
				15:[f5<1.518911] yes=29,no=30,missing=30
					29:leaf=-0.0276483949
					30:leaf=-0.0074521671
				16:[f18<-0.357316315] yes=31,no=32,missing=32
					31:leaf=0.0746543556
					32:leaf=-0.0259303451
		4:[f1<0.341247052] yes=9,no=10,missing=10
			9:[f3<-0.692101657] yes=17,no=18,missing=18
				17:[f7<0.937016785] yes=33,no=34,missing=34
					33:leaf=-0.0251871832
					34:leaf=0.0774819776
				18:[f3<-0.669480383] yes=35,no=36,missing=36
					35:leaf=0.0649402291
					36:leaf=-0.00696623931
			10:[f7<1.34524798] yes=19,no=20,missing=20
				19:[f0<-0.232549876] yes=37,no=38,missing=38
					37:leaf=-0.0141448975
					38:leaf=-0.0286825839
				20:leaf=0.00659319619
	2:[f4<1.06487405] yes=5,no=6,missing=6
		5:[f3<0.638981938] yes=11,no=12,missing=12
			11:[f0<-0.290652186] yes=21,no=22,missing=22
				21:[f8<-0.547502458] yes=39,no=40,missing=40
					39:leaf=-0.0186243951
					40:leaf=0.079983443
				22:[f7<-0.890554667] yes=41,no=42,missing=42
					41:leaf=0.049075
					42:leaf=-0.0210817512
			12:[f9<1.12237334] yes=23,no=24,missing=24
				23:[f4<0.912057996] yes=43,no=44,missing=44
					43:leaf=-0.0221945103
					44:leaf=0.0236204639
				24:[f9<1.39892006] yes=45,no=46,missing=46
					45:leaf=0.0776973441
					46:leaf=-0.015889531
		6:[f5<2.14753747] yes=13,no=14,missing=14
			13:[f3<3.21149731] yes=25,no=26,missing=26
				25:[f18<2.69879532] yes=47,no=48,missing=48
					47:leaf=0.0796722397
					48:leaf=-0.00401137024
				26:leaf=-0.0294108223
			14:[f1<-0.750962496] yes=27,no=28,missing=28
				27:[f3<2.509377] yes=49,no=50,missing=50
					49:leaf=0.0752096921
					50:leaf=-0.0247485377
				28:[f12<1.45200157] yes=51,no=52,missing=52
					51:leaf=-0.00734569831
					52:leaf=-0.028734982
booster[39]:
0:[f0<0.186761901] yes=1,no=2,missing=2
	1:[f0<0.109035328] yes=3,no=4,missing=4
		3:[f0<0.0577975437] yes=7,no=8,missing=8
			7:leaf=-0.0289155189
			8:[f10<-0.527572691] yes=15,no=16,missing=16
				15:[f9<0.328763157] yes=27,no=28,missing=28
					27:leaf=0.0017253207
					28:leaf=0.0770519525
				16:[f3<1.00378358] yes=29,no=30,missing=30
					29:leaf=-0.0286821853
					30:leaf=0.00650321646
		4:[f14<-0.413403183] yes=9,no=10,missing=10
			9:[f4<0.541232288] yes=17,no=18,missing=18
				17:[f3<-0.532918632] yes=31,no=32,missing=32
					31:leaf=0.0802929029
					32:leaf=-0.0261018183
				18:[f6<-0.623968601] yes=33,no=34,missing=34
					33:leaf=-0.0264567118
					34:leaf=0.00805893168
			10:[f10<-0.631347597] yes=19,no=20,missing=20
				19:leaf=0.0539604425
				20:[f13<2.41532993] yes=35,no=36,missing=36
					35:leaf=-0.0281308871
					36:leaf=0.0561967567
	2:[f2<-1.41999185] yes=5,no=6,missing=6
		5:[f4<0.633782744] yes=11,no=12,missing=12
			11:leaf=0.0688667223
			12:[f4<0.729181111] yes=21,no=22,missing=22
				21:[f18<-0.67358005] yes=37,no=38,missing=38
					37:leaf=-0.0256611835
					38:leaf=0.062675871
				22:[f6<0.712134361] yes=39,no=40,missing=40
					39:leaf=-0.0287936535
					40:leaf=0.00813864544
		6:[f18<0.729590058] yes=13,no=14,missing=14
			13:[f3<-0.14452152] yes=23,no=24,missing=24
				23:[f4<-0.12091922] yes=41,no=42,missing=42
					41:leaf=-0.0098673692
					42:leaf=0.0768305436
				24:[f8<1.04675519] yes=43,no=44,missing=44
					43:leaf=-0.0288683716
					44:leaf=0.0247570407
			14:[f9<1.75966692] yes=25,no=26,missing=26
				25:[f6<0.695142865] yes=45,no=46,missing=46
					45:leaf=-0.0262560751
					46:leaf=-0.00178399147
				26:[f0<0.276800811] yes=47,no=48,missing=48
					47:leaf=-0.0170922931
					48:leaf=0.131346986
booster[40]:
0:[f4<-0.0283480007] yes=1,no=2,missing=2
	1:[f7<0.33691892] yes=3,no=4,missing=4
		3:[f5<0.581918538] yes=7,no=8,missing=8
			7:[f3<0.638981938] yes=15,no=16,missing=16
				15:[f3<-0.65024358] yes=31,no=32,missing=32
					31:leaf=0.0123729464
					32:leaf=-0.0203151517
				16:[f8<0.0591563955] yes=33,no=34,missing=34
					33:leaf=0.0617541336
					34:leaf=-0.011655652
			8:[f3<1.42011344] yes=17,no=18,missing=18
				17:[f12<0.913822412] yes=35,no=36,missing=36
					35:leaf=0.0562884882
					36:leaf=-0.00812939834
				18:[f4<-1.69429815] yes=37,no=38,missing=38
					37:leaf=0.0808537528
					38:leaf=-0.021606233
		4:[f7<2.14339709] yes=9,no=10,missing=10
			9:[f6<0.313896775] yes=19,no=20,missing=20
				19:[f18<-1.41972649] yes=39,no=40,missing=40
					39:leaf=-0.0248558838
					40:leaf=0.0632905588
				20:[f7<0.729279459] yes=41,no=42,missing=42
					41:leaf=0.023350358
					42:leaf=-0.0246299077
			10:[f7<2.74944735] yes=21,no=22,missing=22
				21:[f3<4.0352726] yes=43,no=44,missing=44
					43:leaf=-0.0134843653
					44:leaf=0.0951978117
				22:[f18<-0.00500406511] yes=45,no=46,missing=46
					45:leaf=0.0748590156
					46:leaf=-0.0196508374
	2:[f3<-0.683495402] yes=5,no=6,missing=6
		5:[f12<1.15187967] yes=11,no=12,missing=12
			11:[f5<0.876207829] yes=23,no=24,missing=24
				23:[f11<0.555284441] yes=47,no=48,missing=48
					47:leaf=0.0607621968
					48:leaf=-0.0179994944
				24:[f18<0.783635139] yes=49,no=50,missing=50
					49:leaf=0.0952730179
					50:leaf=-0.0195640307
			12:[f7<0.452835381] yes=25,no=26,missing=26
				25:[f6<0.548363149] yes=51,no=52,missing=52
					51:leaf=0.0231680255
					52:leaf=-0.0227276366
				26:[f7<0.548527539] yes=53,no=54,missing=54
					53:leaf=0.0570511594
					54:leaf=-0.0159483906
		6:[f8<1.76240647] yes=13,no=14,missing=14
			13:[f13<7.55793715] yes=27,no=28,missing=28
				27:[f18<0.729590058] yes=55,no=56,missing=56
					55:leaf=-0.0285986867
					56:leaf=-0.0200953092
				28:leaf=0.081817396
			14:[f4<1.28381228] yes=29,no=30,missing=30
				29:[f7<0.495365232] yes=57,no=58,missing=58
					57:leaf=-0.000228181438
					58:leaf=0.0635153279
				30:[f5<2.33688116] yes=59,no=60,missing=60
					59:leaf=-0.0278390683
					60:leaf=0.0299161654
booster[41]:
0:[f2<-1.41999185] yes=1,no=2,missing=2
	1:leaf=0.0786295086
	2:[f3<0.648641586] yes=3,no=4,missing=4
		3:[f2<-1.245085] yes=5,no=6,missing=6
			5:[f8<-0.705568135] yes=9,no=10,missing=10
				9:[f6<0.102305196] yes=17,no=18,missing=18
					17:leaf=0.0860366151
					18:leaf=0.00782416016
				10:[f0<1.03131545] yes=19,no=20,missing=20
					19:leaf=-0.0247403309
					20:leaf=0.0630020648
			6:[f6<0.102305196] yes=11,no=12,missing=12
				11:[f4<0.819486797] yes=21,no=22,missing=22
					21:leaf=-0.0288972836
					22:leaf=0.0682043657
				12:[f1<-0.363923579] yes=23,no=24,missing=24
					23:leaf=0.00395401474
					24:leaf=-0.0275327452
		4:[f2<-0.190122426] yes=7,no=8,missing=8
			7:[f4<0.912057996] yes=13,no=14,missing=14
				13:[f9<0.0875821337] yes=25,no=26,missing=26
					25:leaf=0.0815324411
					26:leaf=-0.0230135564
				14:[f3<3.25072479] yes=27,no=28,missing=28
					27:leaf=-0.0289369021
					28:leaf=0.0605749972
			8:[f3<3.25072479] yes=15,no=16,missing=16
				15:[f18<0.569456518] yes=29,no=30,missing=30
					29:leaf=0.0061208047
					30:leaf=-0.0278654732
				16:[f3<3.66955256] yes=31,no=32,missing=32
					31:leaf=0.0934287012
					32:leaf=-0.0212329682
booster[42]:
0:[f0<-0.915720284] yes=1,no=2,missing=2
	1:[f18<-1.11935842] yes=3,no=4,missing=4
		3:[f5<0.943199754] yes=7,no=8,missing=8
			7:[f3<1.00378358] yes=15,no=16,missing=16
				15:[f15<2.01548433] yes=31,no=32,missing=32
					31:leaf=0.0741744712
					32:leaf=0.0491162799
				16:[f1<-1.05778134] yes=33,no=34,missing=34
					33:leaf=-0.0273776706
					34:leaf=0.0773210153
			8:[f5<2.30465698] yes=17,no=18,missing=18
				17:[f8<-1.96934056] yes=35,no=36,missing=36
					35:leaf=0.0574299954
					36:leaf=-0.028038606
				18:leaf=0.0749502406
		4:[f5<0.181685165] yes=9,no=10,missing=10
			9:[f9<0.380756646] yes=19,no=20,missing=20
				19:[f3<-0.0710641816] yes=37,no=38,missing=38
					37:leaf=0.0646406561
					38:leaf=-0.00762518635
				20:[f9<1.70602727] yes=39,no=40,missing=40
					39:leaf=-0.0216531996
					40:leaf=0.0393247791
			10:[f2<1.12303019] yes=21,no=22,missing=22
				21:[f16<-0.974962592] yes=41,no=42,missing=42
					41:leaf=0.0122078862
					42:leaf=-0.0216417164
				22:[f18<-0.55908674] yes=43,no=44,missing=44
					43:leaf=0.0729305744
					44:leaf=-0.017696118
	2:[f0<-0.405544162] yes=5,no=6,missing=6
		5:[f3<-0.514915287] yes=11,no=12,missing=12
			11:[f3<-0.57029742] yes=23,no=24,missing=24
				23:[f11<0.0131254438] yes=45,no=46,missing=46
					45:leaf=0.019142665
					46:leaf=-0.0241445135
				24:[f8<0.25953877] yes=47,no=48,missing=48
					47:leaf=0.0772665143
					48:leaf=0.000123242615
			12:[f2<1.15936542] yes=25,no=26,missing=26
				25:[f3<3.66955256] yes=49,no=50,missing=50
					49:leaf=-0.0259881169
					50:leaf=0.0063873115
				26:[f3<3.66955256] yes=51,no=52,missing=52
					51:leaf=0.00576787256
					52:leaf=0.0818555057
		6:[f2<1.53156257] yes=13,no=14,missing=14
			13:[f0<-0.254460901] yes=27,no=28,missing=28
				27:[f3<-0.502028346] yes=53,no=54,missing=54
					53:leaf=-0.00985506363
					54:leaf=-0.0262317695
				28:[f3<2.50540447] yes=55,no=56,missing=56
					55:leaf=-0.0286088642
					56:leaf=0.0218651667
			14:[f0<-0.112995058] yes=29,no=30,missing=30
				29:[f15<-0.29322955] yes=57,no=58,missing=58
					57:leaf=0.0593518876
					58:leaf=-0.00480971113
				30:[f2<2.75777626] yes=59,no=60,missing=60
					59:leaf=-0.0272177793
					60:leaf=-0.00272553577
booster[43]:
0:[f18<-0.211194456] yes=1,no=2,missing=2
	1:[f3<1.42011344] yes=3,no=4,missing=4
		3:[f5<3.2069788] yes=7,no=8,missing=8
			7:[f7<2.6629734] yes=15,no=16,missing=16
				15:[f18<-0.397349685] yes=29,no=30,missing=30
					29:leaf=-0.028004393
					30:leaf=-0.0199223515
				16:[f7<2.74944735] yes=31,no=32,missing=32
					31:leaf=0.0689849555
					32:leaf=-0.0259989295
			8:[f5<3.50126791] yes=17,no=18,missing=18
				17:[f6<-1.38245881] yes=33,no=34,missing=34
					33:leaf=-0.0223019924
					34:leaf=0.0740416273
				18:leaf=-0.028194854
		4:[f0<-0.806600213] yes=9,no=10,missing=10
			9:leaf=-0.0279896948
			10:[f4<-0.98785603] yes=19,no=20,missing=20
				19:[f10<-0.838897407] yes=35,no=36,missing=36
					35:leaf=0.0425934978
					36:leaf=0.0863489732
				20:[f3<2.47925282] yes=37,no=38,missing=38
					37:leaf=0.060226094
					38:leaf=-0.0274612904
	2:[f4<0.468470871] yes=5,no=6,missing=6
		5:[f2<-0.275195718] yes=11,no=12,missing=12
			11:[f3<0.412728608] yes=21,no=22,missing=22
				21:[f4<-0.0547969192] yes=39,no=40,missing=40
					39:leaf=0.0283046365
					40:leaf=-0.0197724737
				22:[f5<0.534832239] yes=41,no=42,missing=42
					41:leaf=-0.0291864574
					42:leaf=0.0931426957
			12:[f4<-0.901162326] yes=23,no=24,missing=24
				23:[f6<-0.665905714] yes=43,no=44,missing=44
					43:leaf=0.077701278
					44:leaf=0.0459667407
				24:[f18<0.0169958286] yes=45,no=46,missing=46
					45:leaf=0.00211238232
					46:leaf=0.0358497426
		6:[f3<-0.662403286] yes=13,no=14,missing=14
			13:[f12<0.985409617] yes=25,no=26,missing=26
				25:[f11<0.298820794] yes=47,no=48,missing=48
					47:leaf=-0.00779875508
					48:leaf=0.0595843196
				26:[f0<0.990071774] yes=49,no=50,missing=50
					49:leaf=0.0352629945
					50:leaf=0.0763725415
			14:[f18<2.69879532] yes=27,no=28,missing=28
				27:[f5<-0.889261603] yes=51,no=52,missing=52
					51:leaf=0.0186635554
					52:leaf=-0.0280506406
				28:[f7<0.293348432] yes=53,no=54,missing=54
					53:leaf=-0.0256827567
					54:leaf=0.0296871271
booster[44]:
0:[f3<-0.399460644] yes=1,no=2,missing=2
	1:[f8<0.028485626] yes=3,no=4,missing=4
		3:[f3<-0.514915287] yes=7,no=8,missing=8
			7:[f8<-0.147360131] yes=15,no=16,missing=16
				15:[f15<-1.25199068] yes=31,no=32,missing=32
					31:leaf=-0.0206579529
					32:leaf=-0.0285863169
				16:[f4<-0.83797878] yes=33,no=34,missing=34
					33:leaf=-0.00158595282
					34:leaf=-0.0272059739
			8:[f10<-0.185115457] yes=17,no=18,missing=18
				17:[f5<1.518911] yes=35,no=36,missing=36
					35:leaf=-0.0270617511
					36:leaf=-0.0068204524
				18:[f0<-0.352104694] yes=37,no=38,missing=38
					37:leaf=0.0795037299
					38:leaf=-0.0144384671
		4:[f1<-0.00568181463] yes=9,no=10,missing=10
			9:[f3<-0.692101657] yes=19,no=20,missing=20
				19:[f7<0.888766408] yes=39,no=40,missing=40
					39:leaf=-0.0236863662
					40:leaf=0.0897331238
				20:[f3<-0.658937871] yes=41,no=42,missing=42
					41:leaf=0.0803560466
					42:leaf=7.20526659e-05
			10:[f1<0.363872856] yes=21,no=22,missing=22
				21:[f18<0.390688807] yes=43,no=44,missing=44
					43:leaf=0.00635588681
					44:leaf=-0.023874281
				22:[f1<0.559963048] yes=45,no=46,missing=46
					45:leaf=-0.0228857975
					46:leaf=-0.028704647
	2:[f4<1.09720051] yes=5,no=6,missing=6
		5:[f3<0.638981938] yes=11,no=12,missing=12
			11:[f0<-0.300866932] yes=23,no=24,missing=24
				23:[f8<-0.538072705] yes=47,no=48,missing=48
					47:leaf=-0.0167708043
					48:leaf=0.0755678341
				24:[f7<-0.940017283] yes=49,no=50,missing=50
					49:leaf=0.0472243428
					50:leaf=-0.0192374736
			12:[f9<1.12237334] yes=25,no=26,missing=26
				25:[f4<0.912057996] yes=51,no=52,missing=52
					51:leaf=-0.0218828861
					52:leaf=0.0316868089
				26:[f9<1.39892006] yes=53,no=54,missing=54
					53:leaf=0.0728089958
					54:leaf=-0.0116795832
		6:[f5<2.14753747] yes=13,no=14,missing=14
			13:[f3<3.21149731] yes=27,no=28,missing=28
				27:[f18<2.69879532] yes=55,no=56,missing=56
					55:leaf=0.0744882002
					56:leaf=-0.00381308119
				28:leaf=-0.0291260462
			14:[f16<1.63869691] yes=29,no=30,missing=30
				29:[f3<2.509377] yes=57,no=58,missing=58
					57:leaf=0.0644183382
					58:leaf=-0.0249334313
				30:leaf=-0.0286018196
booster[45]:
0:[f0<0.160273105] yes=1,no=2,missing=2
	1:[f0<0.109035328] yes=3,no=4,missing=4
		3:[f0<0.0577975437] yes=7,no=8,missing=8
			7:leaf=-0.0287520923
			8:[f10<-0.527572691] yes=15,no=16,missing=16
				15:[f3<-0.532918632] yes=27,no=28,missing=28
					27:leaf=0.0387082063
					28:leaf=-0.0252760537
				16:[f2<1.18174875] yes=29,no=30,missing=30
					29:leaf=-0.0288016684
					30:leaf=-0.0120838806
		4:[f12<-0.570247352] yes=9,no=10,missing=10
			9:[f4<0.531487465] yes=17,no=18,missing=18
				17:[f3<-0.532918632] yes=31,no=32,missing=32
					31:leaf=0.0749083534
					32:leaf=-0.0215753708
				18:leaf=-0.0244339127
			10:[f11<1.5195452] yes=19,no=20,missing=20
				19:[f13<1.44852245] yes=33,no=34,missing=34
					33:leaf=-0.0284656435
					34:leaf=0.0116457222
				20:leaf=0.0336474963
	2:[f2<-1.41999185] yes=5,no=6,missing=6
		5:[f4<0.633782744] yes=11,no=12,missing=12
			11:leaf=0.0582209527
			12:[f6<0.592206419] yes=21,no=22,missing=22
				21:[f4<0.669609606] yes=35,no=36,missing=36
					35:leaf=-0.00571975438
					36:leaf=-0.0286354106
				22:[f0<1.74864435] yes=37,no=38,missing=38
					37:leaf=0.0314730965
					38:leaf=-0.019524591
		6:[f18<0.671541691] yes=13,no=14,missing=14
			13:[f3<-0.14452152] yes=23,no=24,missing=24
				23:[f4<0.0774476752] yes=39,no=40,missing=40
					39:leaf=0.0243882053
					40:leaf=0.0724384114
				24:[f10<1.31962085] yes=41,no=42,missing=42
					41:leaf=-0.0283797234
					42:leaf=0.0331695825
			14:[f9<0.614943922] yes=25,no=26,missing=26
				25:[f6<0.695142865] yes=43,no=44,missing=44
					43:leaf=-0.0264231991
					44:leaf=-0.00325313932
				26:[f3<-0.551468313] yes=45,no=46,missing=46
					45:leaf=-0.0252448414
					46:leaf=0.0513694361
booster[46]:
0:[f2<-0.127952233] yes=1,no=2,missing=2
	1:[f0<0.0170702264] yes=3,no=4,missing=4
		3:[f8<-0.441799521] yes=7,no=8,missing=8
			7:[f1<-1.36322951] yes=15,no=16,missing=16
				15:[f5<0.216425672] yes=31,no=32,missing=32
					31:leaf=-0.0265533533
					32:leaf=0.0791542381
				16:[f15<0.437536806] yes=33,no=34,missing=34
					33:leaf=0.035828568
					34:leaf=0.0858610347
			8:[f18<0.0857085958] yes=17,no=18,missing=18
				17:[f13<1.10805964] yes=35,no=36,missing=36
					35:leaf=-0.027795976
					36:leaf=0.0481706485
				18:[f8<0.594872534] yes=37,no=38,missing=38
					37:leaf=0.0235059019
					38:leaf=-0.0236513279
		4:[f18<0.809656858] yes=9,no=10,missing=10
			9:[f18<0.307910353] yes=19,no=20,missing=20
				19:leaf=-0.0287637152
				20:[f5<0.581918538] yes=39,no=40,missing=40
					39:leaf=-0.0252249129
					40:leaf=0.0072911121
			10:[f12<0.938222468] yes=21,no=22,missing=22
				21:[f5<-0.716460288] yes=41,no=42,missing=42
					41:leaf=0.0636005625
					42:leaf=0.00444258656
				22:[f5<-0.993475676] yes=43,no=44,missing=44
					43:leaf=0.00999973994
					44:leaf=-0.0272524208
	2:[f6<0.411114544] yes=5,no=6,missing=6
		5:[f7<0.273970157] yes=11,no=12,missing=12
			11:[f7<-0.738000512] yes=23,no=24,missing=24
				23:[f1<-1.50624299] yes=45,no=46,missing=46
					45:leaf=-0.0246454421
					46:leaf=0.0313116647
				24:[f18<0.729590058] yes=47,no=48,missing=48
					47:leaf=-0.00933014043
					48:leaf=0.0485613309
			12:[f0<0.254907787] yes=25,no=26,missing=26
				25:[f0<-0.402562678] yes=49,no=50,missing=50
					49:leaf=0.0353024714
					50:leaf=0.0740597397
				26:[f7<0.686749578] yes=51,no=52,missing=52
					51:leaf=0.0499075428
					52:leaf=-0.0196261182
		6:[f5<-0.90253377] yes=13,no=14,missing=14
			13:[f10<1.09898281] yes=27,no=28,missing=28
				27:[f7<-0.13121146] yes=53,no=54,missing=54
					53:leaf=0.082694076
					54:leaf=0.0354080871
				28:[f16<1.16841757] yes=55,no=56,missing=56
					55:leaf=0.0264991466
					56:leaf=-0.0200384315
			14:[f5<2.14753747] yes=29,no=30,missing=30
				29:[f7<-1.12076914] yes=57,no=58,missing=58
					57:leaf=0.0186252575
					58:leaf=-0.0162428133
				30:[f5<2.52422762] yes=59,no=60,missing=60
					59:leaf=0.0782753527
					60:leaf=-0.0179263316
booster[47]:
0:[f2<-1.41999185] yes=1,no=2,missing=2
	1:leaf=0.0731986091
	2:[f3<0.648641586] yes=3,no=4,missing=4
		3:[f2<-1.245085] yes=5,no=6,missing=6
			5:[f8<-0.705568135] yes=9,no=10,missing=10
				9:[f9<-0.201202124] yes=17,no=18,missing=18
					17:leaf=0.0914358944
					18:leaf=0.0333469696
				10:[f1<0.7843225] yes=19,no=20,missing=20
					19:leaf=-0.0221395921
					20:leaf=0.0755038559
			6:[f6<0.102305196] yes=11,no=12,missing=12
				11:[f4<0.819486797] yes=21,no=22,missing=22
					21:leaf=-0.0287109669
					22:leaf=0.0674060136
				12:[f1<-0.363923579] yes=23,no=24,missing=24
					23:leaf=0.00550954044
					24:leaf=-0.0272441655
		4:[f2<-0.127952233] yes=7,no=8,missing=8
			7:[f18<0.729590058] yes=13,no=14,missing=14
				13:[f9<0.0875821337] yes=25,no=26,missing=26
					25:leaf=0.0759230182
					26:leaf=-0.0293892566
				14:[f3<3.25072479] yes=27,no=28,missing=28
					27:leaf=-0.0263217874
					28:leaf=0.0878309682
			8:[f3<3.25072479] yes=15,no=16,missing=16
				15:[f18<0.569456518] yes=29,no=30,missing=30
					29:leaf=0.00158515468
					30:leaf=-0.0277263951
				16:[f3<3.66955256] yes=31,no=32,missing=32
					31:leaf=0.0861396268
					32:leaf=-0.0226953477
booster[48]:
0:[f0<-0.931168556] yes=1,no=2,missing=2
	1:[f5<0.487746] yes=3,no=4,missing=4
		3:[f16<-0.884055853] yes=7,no=8,missing=8
			7:[f7<0.589416027] yes=15,no=16,missing=16
				15:[f3<0.638981938] yes=31,no=32,missing=32
					31:leaf=0.0700341314
					32:leaf=0.0332433134
				16:[f7<1.80294561] yes=33,no=34,missing=34
					33:leaf=-0.00046618699
					34:leaf=0.0763489828
			8:[f11<0.00472328905] yes=17,no=18,missing=18
				17:[f9<0.380756646] yes=35,no=36,missing=36
					35:leaf=0.0567233935
					36:leaf=0.00232751272
				18:[f2<1.36070752] yes=37,no=38,missing=38
					37:leaf=-0.0203326251
					38:leaf=0.0403755009
		4:[f5<2.64194345] yes=9,no=10,missing=10
			9:[f8<-0.511319935] yes=19,no=20,missing=20
				19:[f6<-1.98692346] yes=39,no=40,missing=40
					39:leaf=0.0329119377
					40:leaf=-0.0268250909
				20:[f11<-0.0162087847] yes=41,no=42,missing=42
					41:leaf=0.0701090023
					42:leaf=-0.0183195006
			10:[f18<-0.711117208] yes=21,no=22,missing=22
				21:[f5<3.50126791] yes=43,no=44,missing=44
					43:leaf=0.0832644254
					44:leaf=0.00485573057
				22:[f5<3.2069788] yes=45,no=46,missing=46
					45:leaf=0.0174878538
					46:leaf=-0.0282813348
	2:[f0<-0.437501013] yes=5,no=6,missing=6
		5:[f3<-0.502028346] yes=11,no=12,missing=12
			11:[f3<-0.658937871] yes=23,no=24,missing=24
				23:[f0<-0.715792477] yes=47,no=48,missing=48
					47:leaf=0.0247852858
					48:leaf=-0.0143146338
				24:[f4<-0.709010363] yes=49,no=50,missing=50
					49:leaf=0.0353988372
					50:leaf=0.0741186738
			12:[f3<3.66955256] yes=25,no=26,missing=26
				25:[f8<-1.47029269] yes=51,no=52,missing=52
					51:leaf=0.0699115992
					52:leaf=-0.0244571809
				26:[f3<4.0352726] yes=53,no=54,missing=54
					53:leaf=0.0864708051
					54:leaf=-0.0243667755
		6:[f2<1.74051905] yes=13,no=14,missing=14
			13:[f0<-0.181312099] yes=27,no=28,missing=28
				27:[f3<-0.514915287] yes=55,no=56,missing=56
					55:leaf=-0.008262394
					56:leaf=-0.0259616952
				28:[f5<2.91268945] yes=57,no=58,missing=58
					57:leaf=-0.0285948906
					58:leaf=-0.0129705891
			14:[f0<-0.0921056643] yes=29,no=30,missing=30
				29:[f10<-0.104171023] yes=59,no=60,missing=60
					59:leaf=-0.0101164868
					60:leaf=0.0527902022
				30:[f0<0.0865338594] yes=61,no=62,missing=62
					61:leaf=-0.000646391883
					62:leaf=-0.0281304661
booster[49]:
0:[f16<-0.269929916] yes=1,no=2,missing=2
	1:[f3<1.40703773] yes=3,no=4,missing=4
		3:[f5<3.2069788] yes=7,no=8,missing=8
			7:[f7<2.6629734] yes=15,no=16,missing=16
				15:[f16<-0.38811487] yes=31,no=32,missing=32
					31:leaf=-0.0274486728
					32:leaf=-0.0189386737
				16:[f7<2.74944735] yes=33,no=34,missing=34
					33:leaf=0.067404829
					34:leaf=-0.0256380625
			8:[f5<3.50126791] yes=17,no=18,missing=18
				17:[f6<-1.38245881] yes=35,no=36,missing=36
					35:leaf=-0.0221551675
					36:leaf=0.0702165738
				18:leaf=-0.028082883
		4:[f0<-0.781002462] yes=9,no=10,missing=10
			9:[f10<-0.927234292] yes=19,no=20,missing=20
				19:leaf=-0.0279526468
				20:leaf=0.045706626
			10:[f4<-0.98785603] yes=21,no=22,missing=22
				21:[f11<1.26764965] yes=37,no=38,missing=38
					37:leaf=0.0776547268
					38:leaf=0.0284185391
				22:[f3<2.47925282] yes=39,no=40,missing=40
					39:leaf=0.0537489019
					40:leaf=-0.0279334374
	2:[f4<0.444793791] yes=5,no=6,missing=6
		5:[f2<-0.275195718] yes=11,no=12,missing=12
			11:[f3<0.412728608] yes=23,no=24,missing=24
				23:[f4<-0.0547969192] yes=41,no=42,missing=42
					41:leaf=0.0184724387
					42:leaf=-0.018256573
				24:[f5<0.534832239] yes=43,no=44,missing=44
					43:leaf=-0.0283800103
					44:leaf=0.084669821
			12:[f4<-0.914386809] yes=25,no=26,missing=26
				25:[f6<-0.705936551] yes=45,no=46,missing=46
					45:leaf=0.0748346001
					46:leaf=0.0431052633
				26:[f0<-0.266708404] yes=47,no=48,missing=48
					47:leaf=0.00512607396
					48:leaf=0.0349660181
		6:[f3<-0.662403286] yes=13,no=14,missing=14
			13:[f0<0.939249754] yes=27,no=28,missing=28
				27:[f5<0.876207829] yes=49,no=50,missing=50
					49:leaf=-0.0154280951
					50:leaf=0.0677189752
				28:[f12<1.11767817] yes=51,no=52,missing=52
					51:leaf=0.0440492257
					52:leaf=0.0715418383
			14:[f12<2.44278216] yes=29,no=30,missing=30
				29:[f5<-0.889261603] yes=53,no=54,missing=54
					53:leaf=0.0153533118
					54:leaf=-0.0282542594
				30:[f7<0.293348432] yes=55,no=56,missing=56
					55:leaf=-0.0255136285
					56:leaf=0.0322015062
booster[50]:
0:[f6<1.30132413] yes=1,no=2,missing=2
	1:[f3<-0.442888439] yes=3,no=4,missing=4
		3:[f8<0.00599372806] yes=7,no=8,missing=8
			7:[f3<-0.532918632] yes=15,no=16,missing=16
				15:[f8<-0.0880632997] yes=29,no=30,missing=30
					29:leaf=-0.0283730235
					30:leaf=-0.0250357836
				16:[f8<-0.236604884] yes=31,no=32,missing=32
					31:leaf=-0.0263824519
					32:leaf=0.0162395556
			8:[f1<0.231889039] yes=17,no=18,missing=18
				17:[f3<-0.692101657] yes=33,no=34,missing=34
					33:leaf=-0.0218629744
					34:leaf=0.0170878936
				18:[f3<-0.466505647] yes=35,no=36,missing=36
					35:leaf=-0.0276875552
					36:leaf=0.0242906939
		4:[f3<0.648641586] yes=9,no=10,missing=10
			9:[f0<-0.266708404] yes=19,no=20,missing=20
				19:[f6<-0.589656472] yes=37,no=38,missing=38
					37:leaf=-0.0230366718
					38:leaf=0.0666705146
				20:[f7<-0.861096084] yes=39,no=40,missing=40
					39:leaf=0.0422823615
					40:leaf=-0.0214686375
			10:[f9<1.12237334] yes=21,no=22,missing=22
				21:[f6<0.548363149] yes=41,no=42,missing=42
					41:leaf=-0.0251177382
					42:leaf=-0.002576472
				22:[f0<-0.266708404] yes=43,no=44,missing=44
					43:leaf=-0.016469812
					44:leaf=0.0742445812
	2:[f5<2.14753747] yes=5,no=6,missing=6
		5:[f3<3.21149731] yes=11,no=12,missing=12
			11:[f0<0.514303684] yes=23,no=24,missing=24
				23:[f10<0.989616573] yes=45,no=46,missing=46
					45:leaf=-0.0285391808
					46:leaf=0.0681619644
				24:[f5<1.518911] yes=47,no=48,missing=48
					47:leaf=-0.0275266021
					48:leaf=0.0598658137
			12:leaf=-0.0295937993
		6:[f2<-0.116249695] yes=13,no=14,missing=14
			13:[f15<0.168326363] yes=25,no=26,missing=26
				25:leaf=-0.0215818342
				26:leaf=0.0176695529
			14:[f9<2.27545643] yes=27,no=28,missing=28
				27:leaf=-0.0279634688
				28:leaf=-0.00242042146
booster[51]:
0:[f4<-0.00189908082] yes=1,no=2,missing=2
	1:[f6<0.695142865] yes=3,no=4,missing=4
		3:[f6<0.57695657] yes=7,no=8,missing=8
			7:[f6<0.437801778] yes=15,no=16,missing=16
				15:[f8<0.748134613] yes=31,no=32,missing=32
					31:leaf=-0.0287120789
					32:leaf=-0.0239690151
				16:[f11<0.579781175] yes=33,no=34,missing=34
					33:leaf=-0.0247301329
					34:leaf=-0.00116411259
			8:[f3<0.315599054] yes=17,no=18,missing=18
				17:[f3<-0.170834884] yes=35,no=36,missing=36
					35:leaf=-0.0225677062
					36:leaf=0.0395772047
				18:[f14<1.22089124] yes=37,no=38,missing=38
					37:leaf=-0.0280992873
					38:leaf=0.00748329936
		4:[f1<0.439292163] yes=9,no=10,missing=10
			9:[f10<1.09898281] yes=19,no=20,missing=20
				19:[f2<0.425681621] yes=39,no=40,missing=40
					39:leaf=-0.0284052696
					40:leaf=0.00805353373
				20:leaf=0.0332072154
			10:[f7<-0.990546644] yes=21,no=22,missing=22
				21:[f8<0.748134613] yes=41,no=42,missing=42
					41:leaf=-0.0279899295
					42:leaf=0.0165682342
				22:[f7<0.187023804] yes=43,no=44,missing=44
					43:leaf=0.0900029764
					44:leaf=-0.00165250583
	2:[f4<0.981119096] yes=5,no=6,missing=6
		5:[f3<-0.14452152] yes=11,no=12,missing=12
			11:[f3<-0.541255713] yes=23,no=24,missing=24
				23:[f11<-1.19650769] yes=45,no=46,missing=46
					45:leaf=0.0258322097
					46:leaf=-0.0210846942
				24:[f2<-1.41999185] yes=47,no=48,missing=48
					47:leaf=-0.0231243521
					48:leaf=0.0683590397
